34 300
33 -0.003967925 -0.0081544 0.02518669 -0.1805888 -0.11050244 0.048771616 -0.001468309 0.011962085 0.122985944 -0.11516546 -0.14036958 -0.07071833 0.054164205 -0.10627204 -0.020818578 0.103900686 -0.05379475 -0.072165474 -0.1610885 0.02542959 0.03607744 -0.034815464 0.042219162 -0.0366741 0.011581977 0.21508726 0.06037371 -0.06441727 -0.0043527074 0.004406901 0.083125055 0.04148154 -0.06135692 0.123352736 -0.0601505 0.015917746 -0.004093048 -0.18391652 0.11585549 -0.15041922 0.027945299 0.05770056 0.12059847 -0.060741074 0.031792697 -0.04777349 0.03612654 0.03255233 0.0007824189 0.062259465 -0.18719317 0.030570578 0.04794481 0.17226987 -0.013173992 -0.013980605 0.18768613 0.15516861 -0.21567573 -0.03356822 -0.1489641 0.18098404 0.089979105 -0.08666668 -0.058921717 0.14749905 0.10760574 0.15286352 -0.0074177794 -0.13939773 -0.08521622 0.16555025 0.06630245 0.024925467 0.0385981 0.20448712 0.10621253 0.12139374 0.17399922 0.010173792 -0.02519004 0.08685825 -0.013655231 -0.19384976 -0.0083355615 0.07134952 -0.10179357 -0.08611754 -0.113131076 0.018928692 -0.09910267 -0.11565537 0.03258647 0.056823753 0.11210004 -0.085809045 -0.020757586 -0.021487754 0.18129474 -0.094502725 -0.09122988 0.16096918 0.033753272 -0.0018623847 -0.1963904 -0.018383991 -0.14047396 0.08439528 0.012726581 -0.07033132 -0.1427009 -0.094848044 0.04207054 0.017073585 -0.17100713 -0.012561323 0.098856024 0.0768965 -0.058115724 -0.11631577 0.047061197 0.0008702798 0.09060074 -0.03395291 -0.07683841 -0.110209405 -0.019183047 0.024405623 -0.15210947 0.13010846 -0.064403765 0.11735198 -0.0046979976 -0.030669553 0.015735844 -0.0022708983 -0.087915614 -0.059995633 -0.17676318 0.061095428 0.1575571 -0.2637436 -0.05535655 -0.040685035 -0.11738511 -0.121711664 -0.14931895 0.09717863 0.09379233 0.00996088 -0.2085082 -0.018287593 0.061573982 -0.07905325 0.025789132 0.004771886 0.08281247 -0.10262313 -0.08436477 -0.16579254 -0.060571168 0.028575215 0.12374771 0.11218292 0.041146517 -0.11519683 -0.021136174 0.060977947 0.032996837 0.046023943 -0.020355465 0.036461137 0.09477514 0.07945451 0.1338255 0.18324138 -0.11883642 -0.051750038 0.009491734 -0.087538615 -0.13488957 0.015764855 0.08479785 -0.12526372 -0.09933625 0.10326626 -0.13499074 0.032570995 -0.11034867 0.07388843 -0.030560525 -0.12663488 0.07077207 0.07813358 0.044554226 0.09978321 0.08981742 0.12713426 0.05980992 0.071303986 0.0711423 -0.00391523 -0.015469939 0.038359933 -0.027856102 0.013312977 -0.18654425 0.04675138 -0.03835029 0.15093379 -0.03229734 0.07345533 -0.08290053 0.01630984 0.17203695 0.09315165 -0.0733011 0.028276788 0.062088426 0.0124864755 0.057713706 0.019007174 -0.04674271 -0.052159898 -0.19465595 0.05046211 0.03185419 0.09075499 -0.0142626595 0.017921742 -0.046260476 -0.09945426 0.16291398 -0.039132603 0.18653184 -0.14245415 -0.15253447 0.047950875 0.08472202 0.01528777 0.0608524 -0.13756444 0.102965824 -0.0016384564 -0.055717357 0.02436981 -0.005139517 -0.015937814 -0.09246306 0.005103145 -0.20044424 -0.04712129 0.021918753 -0.055408556 -0.09586842 -0.11737805 -0.0719871 0.25637794 -0.025258247 0.10616431 0.13320072 0.12223031 0.07782077 0.0040123425 0.056051034 0.062507994 0.027685806 -0.0070218896 0.014445065 0.05501387 -0.1212854 -0.12807098 -0.0056858086 -0.1324749 -0.07304931 0.022100044 -0.08860719 -0.11275231 0.019535473 0.0049580527 0.046795733 -0.12694293 0.060909964 -0.17424986 -0.007975075 0.013734538 0.11984735 0.2051416 0.023128953 0.09173685 -0.19675802 0.27447897 -0.22722456 -0.13655515 0.0036221843 0.0068602567 -0.05927133 0.09701204 -0.13479972 0.0072849034
0 0.03765892 0.052239936 0.0010663624 -0.1990237 -0.10577484 0.035615854 -0.026741209 0.0004946515 0.08288651 -0.14848259 -0.13535301 -0.033661075 0.06788573 -0.07035223 -0.034056023 0.06940353 -0.035676356 -0.06761488 -0.152294 0.012951937 0.080054715 -0.032499302 0.020414926 -0.052325353 -0.025905006 0.13725808 0.06925313 -0.12972786 -0.026542414 -0.02526302 0.10696388 0.028790088 -0.053910058 0.099829204 -0.067132056 -0.05601993 0.03315798 -0.15316595 0.15324032 -0.14287698 0.015087429 0.03470165 0.11184961 -0.06511782 0.07043827 -0.03757474 0.038423594 0.01056793 -0.061741557 0.047048606 -0.20729023 -0.017812759 0.049140666 0.17510146 -0.044457294 -0.028389907 0.17654857 0.13245352 -0.1904708 -0.011077212 -0.13409555 0.18307664 0.06707403 -0.104243 -0.08381594 0.13903664 0.07193289 0.14066082 0.037464507 -0.14819649 -0.08243306 0.16345029 0.047453906 0.011837973 0.027181752 0.18038107 0.14424773 0.15998733 0.15603724 0.013928056 -0.045322925 0.122304745 -0.034744084 -0.17781179 -0.034800343 0.010097032 -0.080037564 -0.12088434 -0.10741925 -0.0037757067 -0.073068745 -0.085310444 0.006418679 0.018081468 0.14051461 -0.0641133 -0.009424532 -0.013161056 0.14810398 -0.10800601 -0.0829707 0.14046095 0.033705577 0.012726835 -0.19581184 -0.040287253 -0.1628734 0.10965602 0.02363589 -0.091626436 -0.09149883 -0.09852076 0.016975835 -0.060147446 -0.16225292 -0.030185489 0.04660997 0.066697404 -0.050926555 -0.09635197 -0.021840774 0.03155958 0.028210035 -0.026665362 -0.1256387 -0.13979195 -0.0044816853 0.05957554 -0.1411018 0.117062986 -0.09037277 0.08683925 0.010920859 -0.04438022 -0.0028243212 -0.010054104 -0.11139249 -0.028887667 -0.16380814 0.07134768 0.11384928 -0.27719328 -0.037219465 -0.032289 -0.081872515 -0.10991137 -0.16324933 0.1415474 0.044628236 0.03663535 -0.17301217 0.00084015954 0.095726416 -0.13067134 0.031708997 -0.041450128 0.057916302 -0.08760788 -0.043690674 -0.1637585 -0.027863596 0.0016447444 0.17675172 0.09624104 0.020346584 -0.03623796 0.0018582054 0.09899374 0.040194493 -0.018429715 -0.024368096 0.042194348 0.08220832 0.11163793 0.1322743 0.19930965 -0.12618963 -0.047796335 0.015776077 -0.07935947 -0.13564494 -0.0115732355 0.12870349 -0.12830974 -0.121663086 0.023762329 -0.08538754 -0.018026829 -0.11931135 0.06296624 -0.028451012 -0.15618043 0.09198442 0.06902189 0.03500362 0.05289761 0.07173596 0.08043481 0.088551305 0.019845502 0.07030769 0.02394968 -0.008846066 0.044423554 -0.043935288 -0.031768017 -0.17289619 0.0016253012 -0.04947468 0.16051666 -0.025251595 0.027542312 -0.068111144 0.029019624 0.14918292 0.027435767 -0.07865057 -0.020360751 0.09134785 -0.0071017668 0.11239164 0.015522197 -0.056843787 -0.026549995 -0.18396533 0.04256138 0.103086315 0.11517986 0.019983795 0.0042595305 -0.051272366 -0.13145378 0.11711873 -0.014898803 0.21388815 -0.1344278 -0.13690862 0.034630038 0.093414344 0.06934823 0.068739995 -0.15747407 0.07538987 0.03029097 0.02760731 0.044762842 -0.04928159 -0.025424358 -0.10077179 0.0012946354 -0.20762265 -0.03009206 0.054279108 -0.025507625 -0.09118941 -0.123401746 -0.028554933 0.20696218 -0.0074146134 0.06903932 0.117171034 0.15875532 0.12109999 0.017840989 0.10001363 0.08441308 0.05504402 0.0111403605 0.044149574 0.04146392 -0.12133281 -0.11625851 0.0008047141 -0.15925859 -0.06187408 -0.047305536 -0.11231309 -0.12720792 0.053529426 -0.019406939 0.058997996 -0.103119925 0.07724094 -0.18406864 -0.076869525 0.0211986 0.085389994 0.22435682 -0.018983569 0.06012162 -0.15948282 0.1877828 -0.22767141 -0.10923416 0.024384284 0.049990635 -0.13294442 0.1225545 -0.17809772 0.043832295
32 -0.0008545394 -0.0025956524 0.021105178 -0.18640393 -0.10906492 0.04412867 -0.0029057367 0.011397766 0.11684655 -0.120331906 -0.14083958 -0.064852975 0.056349576 -0.102882765 -0.020682888 0.09885943 -0.049952276 -0.071498 -0.15813923 0.022884334 0.041345116 -0.034858745 0.040111132 -0.036736824 0.0068798233 0.20395657 0.06129536 -0.07113494 -0.0062574903 0.002299241 0.08726598 0.039216448 -0.0581666 0.11955088 -0.060521275 0.00641376 0.0002430176 -0.17977172 0.11933328 -0.15102904 0.027320886 0.056433074 0.11774614 -0.05926434 0.03916826 -0.04702858 0.03553851 0.028725604 -0.008165974 0.061427467 -0.1887257 0.02170512 0.048969578 0.17158528 -0.017535025 -0.017429536 0.18842961 0.15277018 -0.2109868 -0.032156724 -0.15016893 0.18372253 0.0890781 -0.089946344 -0.05995316 0.14653529 0.10105025 0.1511978 -0.0005370644 -0.14216669 -0.08637716 0.16573524 0.06399138 0.022311095 0.036068927 0.20115735 0.111746825 0.1259621 0.17271006 0.010243804 -0.030288659 0.09218238 -0.016064586 -0.19282082 -0.010290883 0.062938236 -0.097318396 -0.09091573 -0.11202198 0.013237266 -0.096220456 -0.11285018 0.029189019 0.049817685 0.11416205 -0.0845041 -0.019586185 -0.021671796 0.1791852 -0.09462769 -0.08836823 0.15868442 0.032123245 0.0028680959 -0.19653824 -0.021907527 -0.14319743 0.08668403 0.01277942 -0.07348833 -0.13667089 -0.09703924 0.03904128 0.0052196737 -0.16965121 -0.016612018 0.09264819 0.07618255 -0.05878579 -0.111377165 0.038575448 0.0054456973 0.08140127 -0.03337447 -0.082770355 -0.11515703 -0.0149237085 0.02883121 -0.14970344 0.12926677 -0.070012726 0.112884335 -0.0028592274 -0.03266029 0.011917665 -0.0028277626 -0.08924808 -0.055422872 -0.17521349 0.063537635 0.15311585 -0.26488355 -0.052766938 -0.03884256 -0.11060633 -0.12034027 -0.15071468 0.10322468 0.08790934 0.013382372 -0.20257899 -0.017751092 0.064643785 -0.08708418 0.027981175 -0.0034898021 0.07915296 -0.10044465 -0.080953695 -0.1677663 -0.05523015 0.026882874 0.12918736 0.11092733 0.038951118 -0.105197 -0.018206978 0.0658677 0.03240209 0.036087748 -0.02339037 0.037343167 0.0938856 0.08510138 0.13275169 0.18544398 -0.11983291 -0.04966358 0.011302569 -0.08488272 -0.13511002 0.011868547 0.08990472 -0.12603575 -0.10156281 0.092709586 -0.12958454 0.026579447 -0.111534774 0.07269793 -0.03152033 -0.13228871 0.07209752 0.076283224 0.04161984 0.09149954 0.08753755 0.119107366 0.06434327 0.062009253 0.072045185 -0.00072399643 -0.015759299 0.038740896 -0.028811328 0.006088588 -0.18861207 0.041154176 -0.042347107 0.15270568 -0.031454943 0.0674865 -0.07836542 0.019374952 0.16881257 0.08456742 -0.0731616 0.020906206 0.066356756 0.006788104 0.065731816 0.016598219 -0.04898432 -0.049760878 -0.19298822 0.04859619 0.044771526 0.097033925 -0.0103344 0.014650285 -0.046514455 -0.102611296 0.15749535 -0.036215764 0.19033703 -0.1411111 -0.15144342 0.049751703 0.088315465 0.021599023 0.060810648 -0.14120874 0.09966855 0.0041590594 -0.04362654 0.027778938 -0.011873534 -0.017300174 -0.09347149 0.003126497 -0.20366572 -0.045466408 0.026327396 -0.049256627 -0.09506134 -0.1181368 -0.06607373 0.25135618 -0.023007507 0.103105545 0.1287852 0.13066204 0.08123208 0.0076456727 0.061380975 0.06740216 0.034897666 -0.0047795763 0.019978337 0.05331729 -0.123263024 -0.12690462 -0.0070025786 -0.13935548 -0.07109927 0.010798854 -0.09291909 -0.11537887 0.023857722 -0.0012683277 0.050924864 -0.12285222 0.063642114 -0.17420986 -0.01847084 0.015988907 0.11490658 0.20895639 0.016718479 0.085348345 -0.19316977 0.26472923 -0.23098068 -0.13492118 0.004487526 0.011593397 -0.07100676 0.09860845 -0.14095224 0.01034442
2 0.012070844 0.022358358 0.016380062 -0.19419016 -0.1080661 0.0413993 -0.010879881 0.005726365 0.103472225 -0.13229981 -0.14018376 -0.05395786 0.059122358 -0.08414456 -0.028234309 0.08812738 -0.045434862 -0.07313998 -0.1566751 0.019177182 0.057477284 -0.030251615 0.028398726 -0.045502696 -0.0051854756 0.1795058 0.062537454 -0.09550944 -0.018123135 -0.011735813 0.096969634 0.035819978 -0.058852404 0.11522062 -0.06465827 -0.020776678 0.01567489 -0.17007312 0.13151306 -0.14675163 0.019961163 0.046445817 0.11481555 -0.06151136 0.054985773 -0.042884547 0.038174268 0.024891345 -0.030162316 0.053345267 -0.19442378 0.0052431645 0.049151734 0.1740033 -0.030177388 -0.021992343 0.18604924 0.14415953 -0.20335072 -0.02190855 -0.14678982 0.18289304 0.083897315 -0.09793699 -0.069602825 0.14198898 0.08666086 0.14576551 0.013198442 -0.14129181 -0.08245016 0.16715299 0.05830488 0.01952792 0.034860346 0.1952364 0.12843925 0.1388927 0.16341303 0.010669642 -0.034886684 0.10733991 -0.023279006 -0.18725196 -0.020051243 0.04235901 -0.09101041 -0.100653596 -0.107253544 0.0073658004 -0.08569476 -0.103742935 0.022479368 0.04327233 0.12621754 -0.0803305 -0.017207136 -0.020304294 0.16604106 -0.10298003 -0.08563202 0.15389702 0.03570763 0.0071758153 -0.19643715 -0.028398385 -0.14954363 0.099673286 0.017408194 -0.08106176 -0.12184342 -0.09722265 0.02904417 -0.019195547 -0.16590953 -0.022691729 0.071973994 0.07204106 -0.056634285 -0.10581314 0.011181742 0.015247172 0.05919976 -0.030667244 -0.09825121 -0.12369371 -0.013113281 0.0415435 -0.14890815 0.12507923 -0.0775885 0.1038096 0.002120993 -0.037566077 0.008292391 -0.008583534 -0.09712861 -0.04560605 -0.17373227 0.06548543 0.1378877 -0.27052987 -0.04711087 -0.034611043 -0.1021906 -0.11590748 -0.15769307 0.11860934 0.06649707 0.02293856 -0.19489293 -0.011167085 0.07554807 -0.107056335 0.028684285 -0.01804581 0.07080714 -0.09421482 -0.066688456 -0.16497664 -0.044806305 0.015452375 0.14833207 0.10378654 0.029123204 -0.07976034 -0.005371815 0.077837795 0.03463584 0.012792465 -0.02214722 0.03883492 0.088079736 0.097643785 0.13308339 0.188623 -0.12399453 -0.048116487 0.013666142 -0.08418087 -0.13049719 0.00078165444 0.10619518 -0.12865293 -0.109736204 0.06348793 -0.11037039 0.006711562 -0.11548279 0.06687017 -0.02875723 -0.1435296 0.08118629 0.0718352 0.038551282 0.077848285 0.08116272 0.10356726 0.07335501 0.04756671 0.07061944 0.0109277675 -0.015877603 0.039907664 -0.03854604 -0.011130024 -0.18173784 0.021674577 -0.043109227 0.15310636 -0.028955702 0.05269797 -0.07607367 0.02058238 0.16327302 0.059604894 -0.072668634 0.006666882 0.08149374 0.0015204953 0.08355183 0.017795289 -0.05227536 -0.042591114 -0.19081448 0.047841217 0.0716649 0.10284904 0.0014155341 0.014800874 -0.048395596 -0.11227698 0.14330986 -0.026040034 0.2044332 -0.14137529 -0.14818963 0.042555407 0.089116395 0.044456355 0.06410971 -0.14545506 0.09289279 0.013750315 -0.012822853 0.0319742 -0.028412735 -0.021883987 -0.094827466 -0.0011910847 -0.20421013 -0.041464772 0.038964957 -0.04412339 -0.09516081 -0.12089366 -0.05147766 0.23348613 -0.020105625 0.08839555 0.124389604 0.13975221 0.1009274 0.009601283 0.0773225 0.075149216 0.043950938 0.005776546 0.029611006 0.048238356 -0.120310865 -0.124137625 -0.0049081175 -0.14935388 -0.06741659 -0.011857508 -0.10266689 -0.122183464 0.03808044 -0.007984022 0.053492535 -0.113062516 0.07307441 -0.17789681 -0.04641426 0.016359132 0.102608725 0.2121805 0.0046831015 0.073666014 -0.17625062 0.23439898 -0.23105322 -0.124581285 0.01276322 0.032345675 -0.09620352 0.10882141 -0.15577611 0.027177438
1 0.012216313 0.029764984 0.015106699 -0.19782506 -0.1063858 0.036881547 -0.016886964 0.0020475027 0.099592574 -0.13795972 -0.13880439 -0.05349408 0.062896594 -0.07737601 -0.028876204 0.08375071 -0.04657877 -0.0761194 -0.15597461 0.015513809 0.059238505 -0.030146282 0.022751879 -0.04377376 -0.009605597 0.16945916 0.06281757 -0.10207286 -0.021585623 -0.012297022 0.09837119 0.03723336 -0.060949642 0.11491582 -0.06370106 -0.027484711 0.019791486 -0.16966137 0.13400488 -0.14793319 0.017098518 0.047020104 0.11558149 -0.058626845 0.058431346 -0.045213986 0.040070187 0.024481881 -0.036664374 0.054230954 -0.19570553 -0.0018977791 0.049773805 0.17351343 -0.034518294 -0.020957386 0.18365078 0.13929483 -0.20357174 -0.019482264 -0.14991778 0.18115081 0.08195367 -0.10057527 -0.072881065 0.14353904 0.08441658 0.14704812 0.021035813 -0.14320679 -0.08202569 0.16973294 0.06092367 0.018663196 0.031914677 0.1974588 0.13442893 0.14522678 0.16245486 0.010669758 -0.0373676 0.11241954 -0.027532682 -0.18659359 -0.023314273 0.040247448 -0.088459246 -0.10817637 -0.10282626 0.007166056 -0.080530375 -0.10200517 0.018833 0.04231175 0.13117975 -0.079453 -0.014960638 -0.024137218 0.16254029 -0.103671506 -0.088159785 0.15474181 0.035634138 0.008515355 -0.19841096 -0.031308368 -0.1487462 0.10322636 0.019453323 -0.087800995 -0.119405136 -0.09556908 0.02540447 -0.028516985 -0.1659463 -0.023467125 0.06539849 0.06903251 -0.053322393 -0.10790807 0.0025042193 0.016683038 0.051492494 -0.033130877 -0.107283466 -0.12860437 -0.014989262 0.04525652 -0.1476839 0.123727515 -0.082116514 0.10135635 0.0011497966 -0.04069425 0.0055860556 -0.0109489765 -0.09963225 -0.038447473 -0.17722613 0.067983255 0.13186723 -0.27548277 -0.047195416 -0.02819877 -0.09494899 -0.11341256 -0.16139917 0.11877185 0.061154764 0.026692688 -0.1951244 -0.0078498265 0.07643356 -0.115646884 0.03306726 -0.025260244 0.06714064 -0.0878606 -0.0622135 -0.16268106 -0.042872064 0.012708641 0.15730125 0.09847797 0.02545029 -0.072157286 -0.0018355238 0.083912104 0.0353036 0.0085090585 -0.023915868 0.0349276 0.08918779 0.09737766 0.13202655 0.18947415 -0.120548286 -0.047759783 0.011859854 -0.08481627 -0.12569335 0.0009109218 0.11333432 -0.12830423 -0.1141684 0.053511687 -0.101746894 0.0041217315 -0.118852235 0.06374494 -0.025926514 -0.14563307 0.08179285 0.072486006 0.03736051 0.06904989 0.08342522 0.0989872 0.07323042 0.042474996 0.07014073 0.010540646 -0.015121167 0.039140243 -0.044180814 -0.014604894 -0.17993495 0.013027035 -0.040275536 0.15222012 -0.028132714 0.045588788 -0.07332905 0.020891815 0.1611556 0.05492085 -0.07339769 -0.0015110523 0.085281156 0.0055676945 0.08882541 0.017445479 -0.05094385 -0.04300965 -0.19170749 0.05092269 0.08273036 0.10871275 0.0061181094 0.01734119 -0.051523943 -0.11363155 0.14124516 -0.020224627 0.21026747 -0.13982593 -0.14811336 0.040324837 0.09096065 0.051234894 0.06799474 -0.14778498 0.09139373 0.022196298 -0.0022480502 0.034432497 -0.030542783 -0.021951852 -0.09201324 -0.0031354902 -0.20175402 -0.039169453 0.044882897 -0.044802085 -0.09084532 -0.120434575 -0.045763496 0.22855426 -0.019147279 0.079833895 0.12258376 0.1434609 0.10791847 0.012230637 0.08203026 0.07427292 0.04660701 0.013914566 0.030580703 0.047146965 -0.11694653 -0.12210411 -0.0037032245 -0.15311618 -0.06397786 -0.01716593 -0.10695294 -0.12788635 0.043413464 -0.011133484 0.051232703 -0.10824974 0.07645187 -0.17666781 -0.056092683 0.018259412 0.096564636 0.21267374 -0.0003644194 0.06799248 -0.1704043 0.22434492 -0.23221989 -0.11960798 0.016345352 0.038649283 -0.10470512 0.114202745 -0.16264595 0.03443514
31 0.009606277 0.011391967 0.0150437495 -0.18282272 -0.11013903 0.046458412 -0.009053213 0.005815569 0.111903965 -0.12642744 -0.13698898 -0.056262065 0.0561352 -0.096888416 -0.024928747 0.09028771 -0.047026873 -0.06755771 -0.15864472 0.024397371 0.051139865 -0.031977262 0.036466338 -0.0396424 -0.00014371282 0.19240485 0.06389157 -0.08373771 -0.010317988 -0.0043824343 0.09151108 0.036213405 -0.06026485 0.11521262 -0.06151069 -0.0061017107 0.008893443 -0.17144734 0.12878874 -0.15120657 0.026423408 0.054117505 0.11698602 -0.063496724 0.045681804 -0.042748276 0.038159005 0.02443232 -0.020632286 0.05676897 -0.19290665 0.016163025 0.047748413 0.17308159 -0.023380479 -0.019830288 0.18640567 0.14917776 -0.20321918 -0.02705904 -0.14457192 0.18142694 0.082388885 -0.08796141 -0.06704982 0.14851291 0.0983959 0.14892825 0.008626421 -0.14480218 -0.08461562 0.16280977 0.060156573 0.01941091 0.037325125 0.1983758 0.117372975 0.13317296 0.17007098 0.01414528 -0.029563729 0.099987455 -0.021188267 -0.19097716 -0.012194154 0.05106708 -0.09513326 -0.09205768 -0.11072808 0.01143545 -0.088575505 -0.10581768 0.025896885 0.04284316 0.119868234 -0.0772737 -0.018158222 -0.019143878 0.17119332 -0.09694338 -0.08575893 0.15352613 0.033010796 0.005334687 -0.1965498 -0.023460517 -0.1472566 0.08924603 0.018114021 -0.076685354 -0.1251816 -0.09793865 0.03244978 -0.008053636 -0.17022935 -0.017579708 0.083230995 0.074732006 -0.05429449 -0.11188253 0.025586741 0.008916974 0.0721663 -0.031279977 -0.0900891 -0.122690655 -0.01529828 0.036496717 -0.15097755 0.12617591 -0.072239146 0.110628776 0.0042869183 -0.03465437 0.008128983 -0.0042894403 -0.09445437 -0.049168512 -0.17180893 0.063545436 0.14130338 -0.26896217 -0.050605506 -0.0367927 -0.10539386 -0.11980032 -0.1526672 0.11410526 0.07724346 0.016758727 -0.19726111 -0.010742373 0.0697392 -0.09591416 0.026037268 -0.007023492 0.07855477 -0.09984977 -0.0721412 -0.16514014 -0.048881356 0.019731022 0.13702261 0.1063966 0.03572442 -0.08852574 -0.013639535 0.068829864 0.033863977 0.026680985 -0.023222312 0.03663732 0.09146735 0.08896013 0.13432129 0.18707813 -0.124441855 -0.049719326 0.011184946 -0.08186643 -0.13821927 0.0075576045 0.096379586 -0.12790616 -0.10557741 0.078752525 -0.11992066 0.016035927 -0.11271779 0.07061939 -0.029230205 -0.13541009 0.07480451 0.07324661 0.042841975 0.088470906 0.083788425 0.11361068 0.0716525 0.054826736 0.06992498 0.0063175424 -0.011978127 0.041601267 -0.034496356 -0.0022978848 -0.18237622 0.034611724 -0.040200844 0.15289922 -0.030717911 0.05842142 -0.07927728 0.02186522 0.16733459 0.07005016 -0.07580038 0.012833627 0.07050758 0.005963566 0.07544653 0.016779538 -0.048142053 -0.045532785 -0.19024122 0.0436849 0.05212052 0.09555825 -0.0014927825 0.015902001 -0.04605453 -0.10966066 0.152131 -0.032058522 0.19478096 -0.13999291 -0.1457588 0.044452794 0.08597544 0.029814772 0.061940826 -0.14206886 0.095295146 0.0067396495 -0.032456186 0.029797534 -0.020559976 -0.0184751 -0.09726738 0.005425187 -0.20326184 -0.039956216 0.032819346 -0.046426572 -0.09384309 -0.11733935 -0.059170146 0.24291803 -0.022210948 0.09475117 0.12726654 0.13336986 0.087669164 0.007024406 0.06902417 0.06910643 0.037040763 -0.0042390088 0.021913057 0.050146732 -0.11980723 -0.12604176 -0.0061980532 -0.1434301 -0.067902185 0.0002117655 -0.097264096 -0.113760486 0.030272486 -0.000892262 0.053413507 -0.11630304 0.06595363 -0.17593144 -0.027767614 0.018578839 0.11035757 0.21027368 0.010250049 0.082108684 -0.18678084 0.24734195 -0.22544648 -0.13009082 0.0097044455 0.021409044 -0.08020312 0.105428435 -0.14636655 0.016039694
23 0.0037667518 0.0028934581 0.017766036 -0.18258892 -0.111821555 0.0492483 -0.0062784767 0.008923889 0.11593183 -0.12227694 -0.138239 -0.062860906 0.05640974 -0.10316077 -0.02395274 0.097574994 -0.04782304 -0.06830929 -0.15842198 0.024494711 0.044607695 -0.03379232 0.040492065 -0.03959009 0.0047263033 0.20354754 0.060192183 -0.073318526 -0.0067778653 0.0015051201 0.08706509 0.03946535 -0.06017008 0.117539704 -0.057977647 0.0045982394 0.00022638383 -0.175522 0.12041293 -0.15119372 0.02696124 0.05600946 0.118600115 -0.06430556 0.03744313 -0.045701087 0.03575109 0.025542703 -0.011360173 0.057414286 -0.18990831 0.023734229 0.04899739 0.17253499 -0.019033026 -0.016409952 0.18488188 0.152562 -0.20658343 -0.03259886 -0.1439742 0.18150462 0.0855801 -0.08587285 -0.06141485 0.15092479 0.10292689 0.15045808 0.0016082904 -0.14230007 -0.0870533 0.16166806 0.060747094 0.02257626 0.03686863 0.19782855 0.11122137 0.1272545 0.17090423 0.012782071 -0.02678011 0.093020655 -0.015750442 -0.19387043 -0.008213798 0.059358757 -0.09873358 -0.08729722 -0.11426034 0.012664255 -0.09217715 -0.1102327 0.026816724 0.049940877 0.117724806 -0.08027386 -0.020243946 -0.020245774 0.17558227 -0.09514337 -0.088928856 0.15493271 0.034498513 0.00023207537 -0.19500482 -0.0228689 -0.14623998 0.08443658 0.015574356 -0.0762741 -0.1320584 -0.09733379 0.0386849 0.0048434436 -0.1712754 -0.015081251 0.09142575 0.076925956 -0.054991372 -0.11297488 0.035165455 0.0067208773 0.081846915 -0.032791402 -0.08462898 -0.116062485 -0.018460644 0.032607008 -0.15192954 0.12630594 -0.06960237 0.11278846 0.0020440612 -0.03332339 0.01133629 -0.0014573573 -0.08926283 -0.054934725 -0.17384212 0.06228777 0.14745207 -0.2673446 -0.05203224 -0.04120746 -0.112486154 -0.12102755 -0.14951567 0.107456215 0.084979676 0.014964734 -0.200977 -0.014542601 0.06624729 -0.088913105 0.02721574 -0.000734077 0.081359625 -0.10158348 -0.08044461 -0.16683914 -0.053044245 0.024192197 0.12857261 0.11156895 0.04038897 -0.10095194 -0.018306501 0.064337745 0.034709655 0.032160778 -0.02133923 0.03968943 0.092754334 0.08754838 0.13254863 0.18636678 -0.12152739 -0.05050946 0.0077153584 -0.08416464 -0.13777113 0.00955206 0.088669196 -0.12928084 -0.09951016 0.09075567 -0.12530765 0.024599219 -0.10991992 0.06998646 -0.028972594 -0.12986605 0.07129368 0.07590527 0.045592558 0.094542176 0.084308825 0.11762236 0.06735454 0.06306932 0.0690729 0.001981151 -0.012424079 0.038057595 -0.032535955 0.0057059913 -0.18648483 0.04120059 -0.041470062 0.150654 -0.033425517 0.06347274 -0.07893423 0.016909208 0.16927518 0.08209603 -0.074149944 0.021065712 0.06422943 0.0065500713 0.065135285 0.0146329645 -0.04880592 -0.04655324 -0.19222176 0.04458765 0.042930465 0.09138681 -0.0051713227 0.014647125 -0.04788535 -0.10342701 0.1568116 -0.034759242 0.19055355 -0.13803387 -0.14837135 0.0468674 0.086332045 0.02142501 0.05886112 -0.14038533 0.09546913 0.0007541701 -0.044925187 0.02772523 -0.012295001 -0.017633494 -0.093717866 0.004615686 -0.20301135 -0.043838754 0.02506059 -0.0492412 -0.095905535 -0.118579656 -0.06285662 0.25042653 -0.02323735 0.10229254 0.12897667 0.12895423 0.08270909 0.00789607 0.06118312 0.0649045 0.03403687 -0.0070426348 0.017820038 0.05312531 -0.12084856 -0.12884815 -0.005673039 -0.13942598 -0.06848949 0.009574898 -0.09207081 -0.11172258 0.023715273 0.0027437261 0.04975387 -0.12313706 0.06459155 -0.17408128 -0.01796987 0.01785195 0.115905076 0.20843746 0.017019318 0.086745195 -0.19176295 0.26028964 -0.22655967 -0.13105878 0.004340186 0.011661964 -0.06844463 0.099067174 -0.1429877 0.009770168
3 0.020592822 0.035147365 0.009490518 -0.19406581 -0.10941873 0.038950935 -0.018909467 0.0031080663 0.096765675 -0.13955623 -0.13810849 -0.046378937 0.064644136 -0.07605766 -0.031900223 0.07849894 -0.041639537 -0.07282712 -0.15608616 0.016029498 0.06417165 -0.028554717 0.023928685 -0.04682292 -0.015320461 0.16375287 0.064569674 -0.1084332 -0.023040773 -0.017082544 0.101556785 0.0349476 -0.057446476 0.11015023 -0.06404098 -0.033423655 0.02323406 -0.16563435 0.13978004 -0.1454727 0.018746732 0.04314374 0.11355528 -0.060598962 0.061899405 -0.041454777 0.037691828 0.02064441 -0.041365355 0.052046247 -0.20023432 -0.004951685 0.050017625 0.17088647 -0.036041174 -0.026111566 0.18285942 0.1384282 -0.19840564 -0.01789188 -0.14339142 0.1787337 0.07863302 -0.09790951 -0.07282889 0.1424785 0.07971725 0.1444758 0.02270009 -0.14220934 -0.08305594 0.16669607 0.054683622 0.018190729 0.02909321 0.19058238 0.13472155 0.145618 0.16027638 0.009576055 -0.037294198 0.11364883 -0.02902739 -0.18139131 -0.024622865 0.03236507 -0.08452823 -0.10714294 -0.10603245 0.0044427672 -0.07885953 -0.0954622 0.013999618 0.035026677 0.13058013 -0.075994775 -0.015589729 -0.019571437 0.15772161 -0.10636462 -0.08505274 0.15032324 0.034014788 0.009162522 -0.19770065 -0.032631475 -0.15447012 0.10552801 0.019944716 -0.08780892 -0.1111485 -0.0988555 0.02473981 -0.03464283 -0.16586651 -0.026284775 0.059923638 0.07087629 -0.053558942 -0.10368223 -0.0026069481 0.020242397 0.04553491 -0.0314072 -0.1085494 -0.13009953 -0.011117781 0.04755596 -0.14642638 0.12412196 -0.08194634 0.09493534 0.0067709326 -0.040863086 0.0013788507 -0.009797478 -0.102767915 -0.037168838 -0.17188372 0.066396706 0.12760296 -0.27446476 -0.04051079 -0.032739654 -0.09282224 -0.11334394 -0.16107024 0.12485799 0.058934253 0.03001213 -0.18688406 -0.005402826 0.08351755 -0.115959406 0.029880043 -0.029030873 0.06680538 -0.088987276 -0.056346938 -0.1644522 -0.037625473 0.009268083 0.15893571 0.09980293 0.025321208 -0.06486391 -0.0024723886 0.08463445 0.035348248 0.0012546723 -0.02495377 0.0397632 0.085317545 0.09987901 0.13169749 0.19222805 -0.12524569 -0.045557253 0.012507505 -0.08335964 -0.13052292 -0.0031334767 0.11544537 -0.12591808 -0.11619915 0.046920087 -0.09895028 -0.0035765236 -0.11912222 0.06489982 -0.026778417 -0.14809556 0.08299641 0.07019655 0.03776443 0.06733479 0.0792989 0.09252758 0.076887496 0.038677726 0.06896237 0.014201728 -0.015018391 0.03876711 -0.04444131 -0.017960677 -0.17841603 0.011764903 -0.043161754 0.1536098 -0.0296128 0.043827828 -0.07276306 0.024240883 0.15576118 0.047023967 -0.074671544 -0.005347935 0.0855657 0.0016821664 0.09706432 0.017230546 -0.05236151 -0.037700936 -0.18829358 0.046955895 0.083321385 0.10822877 0.007812484 0.011164946 -0.049742956 -0.11803313 0.13267416 -0.020102724 0.20994091 -0.1383056 -0.14437298 0.039177526 0.08892068 0.05532394 0.06690187 -0.149092 0.084013745 0.023161752 0.005591699 0.035071056 -0.03607743 -0.024326911 -0.09561368 -0.0014231711 -0.20448299 -0.03643342 0.046469003 -0.038366828 -0.09239352 -0.12093587 -0.04233714 0.22248735 -0.015540715 0.08136098 0.12052402 0.1455537 0.10814116 0.011942939 0.08645652 0.077769354 0.05036374 0.008692474 0.03384416 0.044174884 -0.11653351 -0.11891485 -0.003510557 -0.15229593 -0.065217406 -0.024471201 -0.10512301 -0.12369129 0.046499386 -0.014621098 0.052621648 -0.10655294 0.07417398 -0.18065934 -0.0619507 0.019469341 0.096273966 0.21696314 -0.0034115585 0.06582433 -0.1668994 0.21419074 -0.22939312 -0.11618777 0.01881557 0.040222917 -0.10946328 0.115235455 -0.16448146 0.03575539
5 0.061941728 0.06762079 -0.008076471 -0.20389502 -0.10764869 0.036194723 -0.03808054 -0.00301768 0.067487426 -0.15597998 -0.13394037 -0.02003912 0.07273995 -0.065718 -0.03962204 0.055758752 -0.029028418 -0.0602079 -0.15282832 0.014777096 0.09978563 -0.034811214 0.020578004 -0.059454624 -0.0376598 0.10986492 0.07425273 -0.15059273 -0.029147623 -0.034075696 0.11336042 0.02022711 -0.04530426 0.087855935 -0.06726242 -0.079154134 0.043352995 -0.1405452 0.16901882 -0.14404431 0.015213161 0.022471813 0.10558101 -0.070494115 0.08033639 -0.03430646 0.03759612 -0.0024509563 -0.08947927 0.04495193 -0.21551146 -0.034228884 0.052006748 0.17832471 -0.052399725 -0.033087682 0.17006537 0.1249189 -0.17833774 -0.010464497 -0.11799586 0.18601197 0.053375695 -0.11102003 -0.09441721 0.13919872 0.06410308 0.13744731 0.05061855 -0.15532064 -0.0851859 0.1576012 0.03839144 0.006030516 0.0229386 0.1644766 0.14913228 0.17479934 0.15083592 0.01861161 -0.05988495 0.12662973 -0.040692583 -0.17237166 -0.04429864 -0.021712154 -0.074116826 -0.13439505 -0.11709765 -0.0164617 -0.06977059 -0.07127862 -0.0011082934 -0.0024432598 0.14926031 -0.047650546 -0.0064664325 -0.0023849343 0.13910273 -0.10638909 -0.0768923 0.12981123 0.03516873 0.016846318 -0.19346929 -0.049412135 -0.1760823 0.11170631 0.023981327 -0.09792606 -0.06868657 -0.10377948 0.011641297 -0.0867966 -0.166497 -0.038106456 0.029071167 0.060131326 -0.04937877 -0.09020645 -0.04509291 0.043257203 0.0048257564 -0.024135603 -0.14276165 -0.15641204 0.0053675165 0.07021781 -0.14019051 0.10885286 -0.10213419 0.078945786 0.023374362 -0.051026847 -0.014698051 -0.0069240658 -0.122297764 -0.02423257 -0.14816251 0.07551549 0.10427045 -0.28090802 -0.028735058 -0.04199562 -0.07404217 -0.10869449 -0.16401073 0.16016747 0.027239034 0.04129153 -0.15213636 0.0027134344 0.11122911 -0.14255294 0.02960213 -0.05482993 0.053549726 -0.089429125 -0.033112496 -0.16900674 -0.016236652 -0.00535466 0.19421133 0.096326195 0.019656945 -0.007214748 0.0016660421 0.11329963 0.0472463 -0.041563526 -0.029721072 0.047014035 0.07369751 0.12403253 0.13809828 0.20851545 -0.13300312 -0.050415188 0.014927729 -0.07701207 -0.14679058 -0.023481201 0.14314203 -0.13417773 -0.12991738 0.0014656879 -0.0740179 -0.032304123 -0.116407804 0.0640403 -0.029905593 -0.16653045 0.09920689 0.072359 0.033997424 0.03520658 0.06405616 0.06400572 0.1016469 0.0014590017 0.071848124 0.033510473 -0.0046899077 0.04843593 -0.046444185 -0.04880185 -0.17311744 -0.004153364 -0.060249522 0.16788124 -0.024903398 0.013144447 -0.06258851 0.036911134 0.14069232 0.0021005336 -0.08294594 -0.03521034 0.092986226 -0.019475069 0.131709 0.01342084 -0.06562982 -0.013091516 -0.17538437 0.038012702 0.122050084 0.1256649 0.03418927 -0.0088381525 -0.051572617 -0.14739615 0.09448445 -0.012885245 0.21368971 -0.13586998 -0.13309656 0.027563952 0.09906304 0.07959314 0.06880271 -0.16395605 0.0608317 0.033822265 0.04966318 0.052579906 -0.06773179 -0.025216859 -0.11229589 0.004982159 -0.218157 -0.02023851 0.06381679 -0.0033050133 -0.095713906 -0.12613149 -0.015389283 0.19269656 0.0010507343 0.061464876 0.11211064 0.1752964 0.12904704 0.020590072 0.11748931 0.09544424 0.06479944 0.0031351377 0.05722786 0.039856344 -0.12723106 -0.1133811 0.0011799647 -0.1672916 -0.0576941 -0.07410277 -0.11867462 -0.1289148 0.06690565 -0.025305528 0.07084301 -0.10159524 0.08063248 -0.19103658 -0.09188984 0.024809452 0.075316705 0.23816912 -0.041537102 0.052531492 -0.15564719 0.15967296 -0.22312838 -0.10089005 0.03405732 0.05876425 -0.15789038 0.13080789 -0.19296505 0.049347706
6 0.064037964 0.06932917 -0.00692595 -0.20557559 -0.108970955 0.034956228 -0.039364036 -0.0049415873 0.06938396 -0.15793964 -0.13282824 -0.017780727 0.0726836 -0.063686885 -0.040165327 0.05435282 -0.029713318 -0.057505157 -0.155197 0.017510112 0.101308316 -0.03676102 0.021182692 -0.061338563 -0.037914265 0.11126941 0.072844304 -0.15065248 -0.02466936 -0.033428706 0.112337865 0.020961894 -0.043861426 0.08883519 -0.06788226 -0.079030626 0.04291522 -0.13847473 0.16956088 -0.1443762 0.014120803 0.02210434 0.1081495 -0.07247628 0.08120239 -0.031706665 0.039046116 -0.0054044067 -0.09118523 0.046433523 -0.21635072 -0.03394325 0.053664304 0.1810284 -0.050595846 -0.036009587 0.16842145 0.12411863 -0.18080555 -0.008859083 -0.116636746 0.18714306 0.0568849 -0.111510366 -0.093492195 0.13844068 0.066008724 0.14012149 0.047108125 -0.15304011 -0.08515858 0.15855597 0.041400105 0.0032597545 0.022850692 0.16481836 0.15165266 0.1733224 0.149418 0.01891663 -0.06296159 0.12787221 -0.04141842 -0.17381449 -0.047173373 -0.02359283 -0.07403179 -0.13453631 -0.11836949 -0.01631817 -0.06863198 -0.07016633 -0.00030804396 -0.0020939368 0.15014832 -0.047820542 -0.007001385 -0.0036819112 0.14242297 -0.10838938 -0.075629294 0.13110489 0.03515278 0.018362623 -0.19198023 -0.05157913 -0.17733622 0.11474376 0.023346609 -0.09514454 -0.07015788 -0.10701663 0.010851451 -0.08778045 -0.16786447 -0.03771287 0.02663142 0.060062 -0.0491676 -0.090020485 -0.04568828 0.043059513 0.003448084 -0.02489104 -0.14057267 -0.15652792 0.0051357164 0.0726689 -0.13943346 0.10905237 -0.103088945 0.08113588 0.02355253 -0.05145491 -0.015854895 -0.0068661906 -0.122451544 -0.022480428 -0.14787465 0.07537443 0.10418115 -0.28219444 -0.029091561 -0.044238668 -0.0737089 -0.108210616 -0.16596869 0.16092229 0.027379643 0.040899564 -0.15287112 0.0049393973 0.11261225 -0.14498058 0.028583905 -0.054691255 0.051895924 -0.08899814 -0.03030177 -0.17131999 -0.0164406 -0.005960709 0.19543944 0.09766218 0.019424753 -0.0076912264 0.0031669394 0.114223726 0.049844947 -0.042004608 -0.028543169 0.04639301 0.07167967 0.12422325 0.13594313 0.21003284 -0.13401474 -0.051229954 0.013930072 -0.07488833 -0.14655724 -0.02314031 0.14584275 -0.1327843 -0.13118872 0.0011629486 -0.0724366 -0.029231299 -0.115856566 0.06291772 -0.030994268 -0.16846825 0.10204003 0.07470785 0.03171772 0.034968443 0.061828993 0.06634491 0.100765616 0.001183508 0.07250728 0.03298476 -0.006032317 0.05173879 -0.0444404 -0.04955475 -0.17333072 -0.0041938783 -0.06314759 0.17085594 -0.026344119 0.013447367 -0.062174533 0.038039554 0.14351511 0.0005009549 -0.08492898 -0.035118945 0.09229539 -0.018813435 0.1309964 0.012923089 -0.064913645 -0.012436506 -0.17820087 0.039556723 0.12063321 0.124656454 0.033026088 -0.011011288 -0.050558124 -0.14928842 0.09353027 -0.014022165 0.21393295 -0.13597222 -0.13434659 0.027201878 0.098059505 0.08197442 0.06535471 -0.16687255 0.05986867 0.03368114 0.04916941 0.05434292 -0.06803718 -0.024119027 -0.11427126 0.0073979716 -0.22045784 -0.023064397 0.0647936 -0.0019651048 -0.096185 -0.12567575 -0.014487935 0.19253436 0.0004773266 0.063775405 0.11258644 0.17723972 0.12636246 0.022941675 0.1204458 0.09476964 0.06551769 0.0040606884 0.058080666 0.042977687 -0.12889202 -0.111746944 0.0034300813 -0.16865653 -0.060630642 -0.07468093 -0.11801618 -0.12854561 0.06379717 -0.02455708 0.072984315 -0.10229559 0.083513044 -0.19170561 -0.09258924 0.023483178 0.075305395 0.23883992 -0.043890294 0.05368723 -0.15643013 0.15811896 -0.22380652 -0.10300126 0.03536075 0.05990887 -0.15907001 0.13006303 -0.19486408 0.04817542
27 0.0074391156 0.0061556455 0.01721394 -0.18212882 -0.11094685 0.04804059 -0.007333532 0.0073132263 0.11229349 -0.123222426 -0.13747531 -0.06292783 0.055836007 -0.09694546 -0.024826193 0.093646824 -0.0458692 -0.06965034 -0.15927514 0.025326768 0.04636085 -0.032346074 0.03730899 -0.038475193 0.0050566155 0.20024382 0.060086112 -0.07864603 -0.009385039 -0.0041095726 0.08769502 0.03762782 -0.061988004 0.11755386 -0.05997717 0.0010015606 0.004827586 -0.17524673 0.12442594 -0.14987928 0.025671894 0.05594537 0.11692317 -0.06397266 0.042269763 -0.04430618 0.03837997 0.024700962 -0.01608794 0.057751503 -0.19249396 0.020567223 0.049420435 0.17365937 -0.022561371 -0.01776676 0.18548127 0.15020247 -0.20726031 -0.029659044 -0.14637819 0.18262285 0.08481269 -0.088389 -0.06408677 0.14707914 0.0996996 0.14979266 0.0031340877 -0.14415464 -0.08593257 0.16116387 0.060816597 0.01975375 0.03784559 0.20155518 0.11611248 0.13115571 0.17055658 0.011714351 -0.030762147 0.09746077 -0.01953408 -0.1896124 -0.011626266 0.055317096 -0.09546343 -0.089053616 -0.11064301 0.013367248 -0.08928173 -0.10924184 0.028529089 0.049024098 0.11680641 -0.08227151 -0.017564466 -0.020995539 0.17186989 -0.098223075 -0.087664716 0.15752251 0.034415994 0.002016267 -0.19810435 -0.022689125 -0.14724576 0.08695479 0.017464487 -0.077285185 -0.13047597 -0.09777424 0.034237232 -0.00038852548 -0.17159794 -0.017425334 0.08676827 0.07643871 -0.057166457 -0.111948855 0.028620007 0.008865578 0.07667076 -0.03274421 -0.08621912 -0.11904396 -0.015323237 0.034934103 -0.15044284 0.12527864 -0.07074635 0.111840025 0.0033202306 -0.03308185 0.0096901525 -0.00236547 -0.09014504 -0.052169796 -0.17564227 0.06134089 0.14761358 -0.268462 -0.050533842 -0.03783709 -0.10971201 -0.12106599 -0.15083428 0.10940477 0.080219716 0.015747236 -0.20080717 -0.015143857 0.06953302 -0.089325935 0.026659643 -0.0047941804 0.07896293 -0.101889275 -0.07853679 -0.16673692 -0.052334435 0.022766393 0.1355303 0.10765506 0.03988522 -0.09527367 -0.013950639 0.06887591 0.033177774 0.032840118 -0.021712136 0.036141686 0.09358651 0.08970778 0.13477166 0.18801592 -0.12384476 -0.050279595 0.011108466 -0.08482845 -0.13522677 0.008933094 0.092826255 -0.12899849 -0.10412957 0.08436769 -0.124747634 0.018694252 -0.11384424 0.07272485 -0.030308546 -0.13420148 0.0754618 0.074271515 0.04297673 0.089172445 0.08367607 0.1161811 0.07015968 0.058840226 0.0710472 0.0041808058 -0.013193972 0.038085826 -0.033424035 0.0024355375 -0.18459256 0.03550216 -0.0398075 0.15447913 -0.031219162 0.06083524 -0.08047234 0.020268133 0.16931485 0.07779286 -0.07645715 0.01684205 0.068667606 0.005079468 0.070854425 0.016416986 -0.04657773 -0.04533545 -0.19071825 0.046204243 0.048146646 0.09484097 -0.0058549205 0.016424714 -0.045535136 -0.105949394 0.15601566 -0.03440219 0.19461712 -0.1404741 -0.1494257 0.045275632 0.08557324 0.027627463 0.060094375 -0.1430139 0.09730298 0.004114286 -0.03895936 0.031127568 -0.01595597 -0.018033072 -0.0963593 0.003351587 -0.20358774 -0.041973643 0.027905772 -0.047401264 -0.09308878 -0.11912463 -0.06022162 0.24661858 -0.022808582 0.099673696 0.1295941 0.13171604 0.085567735 0.008152729 0.064462945 0.069665134 0.033841915 -0.006157461 0.021758027 0.053477526 -0.117931634 -0.12653065 -0.0045505897 -0.14083964 -0.070137255 0.0046678125 -0.09395018 -0.1143149 0.028904548 -0.000508104 0.05244095 -0.11751387 0.06476178 -0.17353112 -0.022333447 0.019309156 0.113983154 0.21051113 0.016150322 0.08426373 -0.19018386 0.25737724 -0.22851817 -0.13159373 0.008012562 0.018710399 -0.07573618 0.10284382 -0.1460769 0.014218767
8 0.010574293 0.014269466 0.014845838 -0.19393544 -0.108427726 0.041398685 -0.009502437 0.0064637596 0.10674366 -0.13102183 -0.14030078 -0.05690321 0.0612827 -0.08977166 -0.025378324 0.08987882 -0.04531766 -0.06997371 -0.15923594 0.022070091 0.05378184 -0.034398228 0.03411817 -0.04385185 -0.0036108226 0.18477595 0.063606374 -0.09176884 -0.01264017 -0.009547735 0.094635524 0.037103888 -0.056749217 0.11413759 -0.062598564 -0.0154737905 0.011143019 -0.17260404 0.13041379 -0.14827909 0.023663543 0.046976645 0.11837241 -0.060840983 0.05114645 -0.043748103 0.037462328 0.022843892 -0.028052302 0.058098562 -0.1973577 0.010101279 0.04970963 0.1753839 -0.026698137 -0.020953694 0.18371943 0.1448819 -0.20575216 -0.02308869 -0.14749885 0.18557203 0.08393032 -0.09634889 -0.066509195 0.1440258 0.091338344 0.14879037 0.010733478 -0.1434455 -0.08632792 0.16404317 0.059613843 0.019053672 0.03441852 0.19458932 0.122407176 0.1381426 0.1692905 0.011495454 -0.037489235 0.104409136 -0.023675423 -0.18831503 -0.02000515 0.046226583 -0.09346944 -0.100786 -0.109441444 0.00917391 -0.08976386 -0.10374085 0.022250235 0.041697007 0.12238155 -0.080332555 -0.015718963 -0.020965891 0.16903658 -0.10016146 -0.08826085 0.15430003 0.034469727 0.0058230483 -0.19643426 -0.027122663 -0.14864369 0.09514183 0.016233955 -0.07960324 -0.12424429 -0.10029907 0.031188684 -0.013635919 -0.16929992 -0.020333936 0.078136206 0.072481416 -0.05672102 -0.10716719 0.016938958 0.013780133 0.063094586 -0.030326145 -0.09683131 -0.12502962 -0.012010948 0.03812351 -0.15111975 0.12577204 -0.07754004 0.10568116 0.004147976 -0.037679136 0.008802647 -0.0052354834 -0.09963688 -0.0489919 -0.17444262 0.06631813 0.14311944 -0.26994723 -0.04905633 -0.03662423 -0.10425651 -0.11786242 -0.15623797 0.11548632 0.0729226 0.020592172 -0.19422074 -0.012948441 0.074457794 -0.10454609 0.02872637 -0.016054932 0.07464049 -0.09849879 -0.069678344 -0.16897456 -0.04700187 0.019468633 0.14585672 0.106259994 0.033381786 -0.0843976 -0.011356953 0.0751296 0.03529736 0.01976787 -0.022798033 0.038684823 0.09098467 0.09518179 0.13663925 0.1914144 -0.12408215 -0.049435273 0.010208685 -0.08520363 -0.13358605 0.004690068 0.10427647 -0.12780121 -0.108103454 0.07115328 -0.11406416 0.013275405 -0.11638144 0.06967737 -0.031480495 -0.14360923 0.08010421 0.076400496 0.03932536 0.07978767 0.08375229 0.10921522 0.07158941 0.05165802 0.07147293 0.0061163395 -0.01639374 0.0396666 -0.03381222 -0.006489498 -0.18352284 0.025712898 -0.04499357 0.15664788 -0.030865917 0.05640825 -0.078164466 0.022096433 0.16397226 0.06475517 -0.07610638 0.006873874 0.078598715 0.0033451766 0.08115987 0.019100787 -0.050279386 -0.041578338 -0.19034123 0.049087837 0.06318598 0.10297908 0.00089922536 0.012461152 -0.047163665 -0.111951046 0.14655998 -0.030089635 0.19970956 -0.14025861 -0.1498602 0.044744376 0.091378964 0.039541785 0.06252571 -0.14692211 0.09140982 0.011935349 -0.020392202 0.03448859 -0.024025703 -0.018492043 -0.09677796 0.0029102336 -0.20827278 -0.04236705 0.037966125 -0.04279922 -0.093325555 -0.11966298 -0.05486901 0.23729849 -0.020958744 0.09365695 0.12659003 0.14161825 0.09490629 0.010925083 0.07769911 0.07260675 0.041955832 -0.0010963739 0.026439168 0.04877739 -0.12252281 -0.12523782 -0.006141422 -0.14655001 -0.068820976 -0.005606922 -0.09940117 -0.1225182 0.035268378 -0.006759313 0.0551144 -0.11842799 0.07067153 -0.17958972 -0.039386384 0.019611396 0.10784595 0.21577945 0.0069637066 0.07886034 -0.18353096 0.241431 -0.23128335 -0.126958 0.01284895 0.024977252 -0.09049737 0.10947339 -0.15534791 0.022151599
13 0.016294206 0.02321557 0.014635286 -0.19366811 -0.10882555 0.039485104 -0.013582974 0.00582087 0.099987455 -0.13387966 -0.13724343 -0.05294952 0.0604386 -0.083652385 -0.028515788 0.08553646 -0.0461597 -0.07012281 -0.1563997 0.018235553 0.05666251 -0.03267283 0.028806407 -0.043190494 -0.008673981 0.17212965 0.06366643 -0.0990088 -0.018150687 -0.012054027 0.09626993 0.036075253 -0.05784371 0.11211146 -0.06489787 -0.02201353 0.015516689 -0.16871594 0.13118902 -0.14550753 0.020574383 0.047128398 0.11327781 -0.060993616 0.055210598 -0.04345335 0.03741303 0.021879124 -0.032592304 0.052410338 -0.19517154 0.0030122981 0.04819643 0.17268161 -0.03027614 -0.020120053 0.18149723 0.1411238 -0.20137924 -0.020346515 -0.14409547 0.180297 0.08119132 -0.09835503 -0.06889724 0.14221306 0.084869325 0.14497328 0.01628067 -0.14135769 -0.08404263 0.1650099 0.059051372 0.019717846 0.0307948 0.19219665 0.12718356 0.14211607 0.16379179 0.0091551365 -0.037177 0.10697424 -0.024697479 -0.1847039 -0.023426933 0.040127903 -0.08875913 -0.102187745 -0.106241055 0.004682354 -0.08353917 -0.1013635 0.020422082 0.040375557 0.12801965 -0.077021115 -0.016074544 -0.020930154 0.16390297 -0.10040211 -0.08533464 0.1504439 0.034971163 0.00847731 -0.19441056 -0.028613707 -0.14872934 0.099394135 0.016050598 -0.084145784 -0.11534006 -0.09916419 0.026450187 -0.024730101 -0.16634001 -0.024873942 0.06989805 0.07066129 -0.056614134 -0.10557047 0.009286237 0.0151568875 0.0546552 -0.030315954 -0.10195822 -0.1266882 -0.012062783 0.04186444 -0.14537333 0.12428337 -0.08079292 0.101876944 0.0027653803 -0.037426196 0.00482974 -0.008438587 -0.100457035 -0.041728016 -0.17035852 0.064657636 0.13434705 -0.2691968 -0.04561348 -0.0334323 -0.099271186 -0.11408806 -0.15795434 0.11915399 0.063641764 0.02549094 -0.19100502 -0.008058548 0.076614976 -0.11029854 0.029454999 -0.02083139 0.069016695 -0.090315394 -0.06410411 -0.16512278 -0.040752 0.0135559235 0.15248273 0.10033976 0.029018003 -0.07326667 -0.006634247 0.08200222 0.034383148 0.010747488 -0.024752744 0.036633853 0.086806856 0.09644599 0.13367116 0.18798462 -0.12285494 -0.045704376 0.011905265 -0.082119964 -0.13033806 -0.00073120615 0.106987305 -0.1275509 -0.111045875 0.059119295 -0.10740905 0.0049314406 -0.114849 0.06520433 -0.028450377 -0.14319138 0.082500175 0.07376058 0.039900776 0.0733464 0.07900335 0.101641774 0.07482786 0.043819796 0.06880074 0.011392514 -0.013828004 0.039382443 -0.03996335 -0.0130514875 -0.18017095 0.018695587 -0.042419817 0.15420328 -0.03054352 0.050182253 -0.07494632 0.022178164 0.15995583 0.055483185 -0.07352761 0.0026984352 0.08110748 0.0027216775 0.08723902 0.017393908 -0.052547447 -0.040542208 -0.18907194 0.049169205 0.07512093 0.10666062 0.0038567432 0.01362004 -0.0478183 -0.11361664 0.13912675 -0.02449757 0.20387924 -0.13822813 -0.14614397 0.04119037 0.090108685 0.04443194 0.06328498 -0.14816953 0.0887295 0.015296829 -0.00791114 0.03399648 -0.030057471 -0.021451155 -0.095623374 0.0012223646 -0.2041413 -0.03947359 0.040404163 -0.04053231 -0.093946025 -0.11992951 -0.047123462 0.22824687 -0.017889146 0.08647683 0.122694746 0.14158879 0.10181624 0.010276931 0.08168218 0.07376415 0.04654405 0.0068624597 0.029546212 0.049254216 -0.117779285 -0.12196971 -0.0022498106 -0.14745896 -0.064790525 -0.014392955 -0.101061575 -0.12086891 0.04096025 -0.010383824 0.052587986 -0.11143119 0.07281946 -0.17716004 -0.050052866 0.01694093 0.09918404 0.2129292 0.002025292 0.072305545 -0.1751391 0.22788045 -0.22937387 -0.11944751 0.016119627 0.031877283 -0.1013805 0.108846955 -0.15772676 0.029088989
10 0.048762806 0.059072904 -0.0034875376 -0.20095187 -0.10827945 0.03498816 -0.0340445 -0.004454489 0.07646116 -0.14955235 -0.13315074 -0.02731219 0.070942685 -0.06900457 -0.037010957 0.06405394 -0.03317153 -0.06179702 -0.15233465 0.014486567 0.09055285 -0.032499634 0.02099799 -0.058265343 -0.029955687 0.12822367 0.07119341 -0.13934103 -0.02620231 -0.029829677 0.11066032 0.023332665 -0.051094253 0.09346258 -0.06554023 -0.06521475 0.038536835 -0.14782788 0.16119489 -0.1426176 0.015548918 0.029453777 0.10626026 -0.06900069 0.07567708 -0.03474462 0.03667126 0.0017299022 -0.07678875 0.04616379 -0.2083214 -0.025819032 0.051426463 0.17734413 -0.045876846 -0.03393256 0.17350179 0.12756526 -0.18406624 -0.0118855825 -0.12652291 0.18262391 0.060338262 -0.10576557 -0.086536005 0.14129528 0.06752461 0.13980141 0.040123235 -0.15238987 -0.084269784 0.15960449 0.045607142 0.009047677 0.02403817 0.17384747 0.14642805 0.16538097 0.1547236 0.014898265 -0.054075878 0.12597175 -0.036569614 -0.17573379 -0.03932289 -0.004967765 -0.078983314 -0.1272066 -0.1138707 -0.01094256 -0.071030065 -0.08020863 0.003987794 0.009034705 0.14454663 -0.058710933 -0.007871126 -0.008798675 0.14614384 -0.10822647 -0.077807434 0.13592464 0.03676473 0.013909523 -0.19553988 -0.045873802 -0.16714987 0.111248 0.021562476 -0.09569908 -0.08024807 -0.10395979 0.015751975 -0.07098894 -0.16554171 -0.035521615 0.038530614 0.06393273 -0.051635988 -0.094085366 -0.03334065 0.036118314 0.017763441 -0.027497204 -0.13424352 -0.15048876 -0.0017366146 0.06318603 -0.14401461 0.1123616 -0.09525915 0.08609627 0.018107098 -0.048787568 -0.011254446 -0.009054354 -0.114418805 -0.028537134 -0.15686625 0.07188794 0.11237796 -0.2791419 -0.031299535 -0.036143135 -0.078740165 -0.11201923 -0.16292535 0.14993249 0.034534127 0.038585655 -0.16333607 -0.00016457986 0.10272798 -0.13564478 0.029631173 -0.04690023 0.054846503 -0.089374684 -0.0411402 -0.16812827 -0.024410855 -0.002457194 0.18288246 0.09784549 0.019813176 -0.021805504 0.001686487 0.104352176 0.044786327 -0.028929856 -0.02706284 0.045736313 0.0782737 0.118287265 0.1371951 0.20486389 -0.13123155 -0.04753077 0.015107146 -0.07972475 -0.142079 -0.017200293 0.13380955 -0.13101576 -0.12736768 0.014733959 -0.079137914 -0.023405835 -0.11852089 0.06126122 -0.027633326 -0.16066441 0.09571967 0.07177392 0.03421674 0.043488953 0.06743921 0.071492404 0.09631534 0.01126453 0.07273837 0.02584714 -0.009183951 0.04555815 -0.048278533 -0.041566703 -0.17247514 -0.00087855535 -0.05653267 0.16293654 -0.027625294 0.0209784 -0.065372504 0.03240111 0.14464362 0.01395662 -0.08003482 -0.024260616 0.0920554 -0.013198953 0.12182589 0.012633459 -0.06282283 -0.022816572 -0.17853318 0.04183198 0.11243072 0.119329795 0.027231114 -0.0031960122 -0.049445853 -0.136862 0.10661637 -0.017403059 0.21438068 -0.1353561 -0.13810447 0.031205246 0.09397933 0.072461985 0.065659724 -0.1601936 0.07028879 0.031494927 0.03734986 0.04949001 -0.057538178 -0.024732428 -0.10747795 0.004730472 -0.21314906 -0.028022582 0.057604223 -0.014080503 -0.09313396 -0.12386317 -0.023362854 0.20262304 -0.0030762516 0.06831948 0.11426713 0.16590047 0.12340915 0.020831304 0.10977145 0.08928556 0.06201399 0.0048897946 0.050146602 0.042573817 -0.12604938 -0.112952635 0.0019163005 -0.16508634 -0.061285313 -0.059896775 -0.11467005 -0.12800078 0.06154923 -0.023718096 0.06687756 -0.10450903 0.082014725 -0.18772238 -0.08556461 0.021081287 0.082761206 0.2317673 -0.028889427 0.058257706 -0.15924323 0.17506698 -0.22610918 -0.104025155 0.030540729 0.054677073 -0.14567076 0.12548095 -0.18509625 0.04722398
4 0.04326027 0.051895946 -0.00096251274 -0.19802539 -0.10862355 0.03652107 -0.027374567 -0.00049568404 0.083010815 -0.14747703 -0.13634662 -0.03244481 0.06588883 -0.071472175 -0.033636976 0.06584745 -0.036812287 -0.06517102 -0.15386271 0.016098356 0.08124487 -0.033099074 0.02241338 -0.055291068 -0.024131337 0.1377638 0.067706786 -0.1296211 -0.025445346 -0.02493456 0.1072228 0.02763569 -0.052306887 0.09835016 -0.06378721 -0.053758584 0.030920042 -0.15250805 0.15299575 -0.14338243 0.0140529545 0.032185875 0.11025798 -0.06540485 0.070287906 -0.037813734 0.036894016 0.0072395373 -0.06696501 0.047237493 -0.20505442 -0.019327888 0.04940152 0.17456113 -0.04198631 -0.029231736 0.1747543 0.1294904 -0.18683966 -0.014247657 -0.1283635 0.1814984 0.064339235 -0.104942694 -0.08219706 0.13884121 0.0711756 0.14111033 0.036533464 -0.1486819 -0.081730396 0.16024873 0.04818842 0.011520768 0.028315613 0.17874451 0.13999178 0.16126908 0.15561396 0.015297455 -0.04837034 0.12004728 -0.035764873 -0.17654657 -0.034316204 0.0039626407 -0.07924702 -0.11948286 -0.11020478 -0.007851021 -0.074284926 -0.08616194 0.007923583 0.017886335 0.14099683 -0.0607067 -0.011281664 -0.0118307825 0.15030482 -0.105553165 -0.082116865 0.13769232 0.03430182 0.012705158 -0.19385219 -0.041631944 -0.16205603 0.10726687 0.02154203 -0.091508195 -0.088227354 -0.10217464 0.017408444 -0.06196058 -0.16551325 -0.031073345 0.04446345 0.06279245 -0.050409894 -0.09762066 -0.021477787 0.031082561 0.025567902 -0.02730229 -0.12545753 -0.14371352 -0.0022535555 0.059288893 -0.14126194 0.11568025 -0.09295524 0.09023063 0.016020637 -0.047037203 -0.0051492783 -0.0085261045 -0.111490816 -0.030651575 -0.16021805 0.07074176 0.117462814 -0.27686235 -0.036679823 -0.034918282 -0.08262563 -0.10989882 -0.1592765 0.14292248 0.040848427 0.03435323 -0.169986 -0.00216085 0.09564219 -0.1304585 0.031435817 -0.040776983 0.058822095 -0.08943111 -0.04427436 -0.16701137 -0.027810777 0.001130918 0.17403889 0.095200166 0.02411457 -0.03450162 -0.0017713837 0.097510666 0.04148083 -0.02010548 -0.026106179 0.041617814 0.0811125 0.11266789 0.13620289 0.19853945 -0.12855725 -0.048192047 0.014644186 -0.07905976 -0.13924631 -0.012738921 0.12724736 -0.13002653 -0.12052737 0.024137607 -0.08481795 -0.016793443 -0.114403665 0.06391782 -0.029543808 -0.15507384 0.092257574 0.07150792 0.036852967 0.053189036 0.070805065 0.07836654 0.091138236 0.018176949 0.070598364 0.02222544 -0.010974555 0.045046795 -0.046552356 -0.034281626 -0.17364717 0.0035995988 -0.05236947 0.16075563 -0.02669552 0.02648357 -0.067948565 0.031610087 0.14755405 0.024426581 -0.07784063 -0.017707126 0.08836748 -0.010164577 0.11199466 0.012580044 -0.059852842 -0.02563472 -0.1813482 0.04145667 0.1029594 0.11689076 0.021210127 -0.00025072094 -0.04816711 -0.13073243 0.11333947 -0.018201636 0.21168488 -0.13545042 -0.13716903 0.032437902 0.09206303 0.06543836 0.067085825 -0.15802902 0.07327993 0.028870098 0.027664242 0.04279323 -0.052469898 -0.022718476 -0.1043668 0.003576652 -0.21179931 -0.030440317 0.05207554 -0.019219829 -0.09351881 -0.123132624 -0.02680765 0.20610498 -0.00922414 0.07051695 0.11555529 0.1579631 0.11925356 0.017454203 0.101666 0.083821654 0.056120943 0.007940386 0.044058535 0.043301318 -0.12135753 -0.11601565 0.0012513722 -0.15802492 -0.06000464 -0.04784176 -0.11165327 -0.12540154 0.05748895 -0.01991726 0.061137114 -0.10532097 0.078290045 -0.18450013 -0.07690876 0.020607922 0.08711961 0.22695218 -0.022596423 0.061939865 -0.16181067 0.18563503 -0.22354063 -0.1071079 0.026603999 0.051124167 -0.13499042 0.12186642 -0.17823292 0.04230252
29 0.005112329 0.0031903146 0.018902164 -0.18844384 -0.11048034 0.04708362 -0.004440137 0.009527684 0.112979434 -0.12572679 -0.13936496 -0.062164642 0.055779018 -0.102256045 -0.025111148 0.09743224 -0.05123071 -0.069607124 -0.16084789 0.023686022 0.04992535 -0.034777295 0.041343976 -0.039933614 0.0011036911 0.20102157 0.06327592 -0.079629235 -0.006549749 -0.00016085587 0.092269905 0.039559573 -0.06061879 0.11955549 -0.061820358 0.0014802624 0.0023737978 -0.17915922 0.1235893 -0.1513301 0.026192864 0.054544933 0.11873709 -0.063955784 0.040114302 -0.044352975 0.037110794 0.027365744 -0.014190312 0.057272322 -0.19343008 0.021417739 0.05000197 0.17611071 -0.021343634 -0.01650461 0.18811733 0.15470728 -0.21234691 -0.028121037 -0.14559934 0.18413603 0.083195165 -0.08917216 -0.06533579 0.1517721 0.10229203 0.15469863 0.0049545434 -0.14479989 -0.08696014 0.16700651 0.06233067 0.022700733 0.034481738 0.19886161 0.115404956 0.12860045 0.1738308 0.011468716 -0.033147708 0.09596553 -0.016389087 -0.19605926 -0.011162245 0.05573679 -0.09812232 -0.09213765 -0.11524383 0.013616875 -0.09508639 -0.10805858 0.02739001 0.046828855 0.11810225 -0.07958024 -0.018796887 -0.01930113 0.17763063 -0.09777516 -0.088529006 0.15723619 0.0355208 0.00045402907 -0.19628862 -0.022348851 -0.1476747 0.091422856 0.015112146 -0.07799761 -0.1297648 -0.09998585 0.036293488 0.0019470329 -0.17194834 -0.017642021 0.087796986 0.07812737 -0.05589846 -0.11347662 0.030422706 0.008883147 0.07782947 -0.034388922 -0.088763915 -0.11885486 -0.016327003 0.033213053 -0.15126482 0.12727444 -0.07355104 0.11131962 0.0006222168 -0.036167383 0.011360683 -0.0011593158 -0.0938953 -0.052766256 -0.17203464 0.06216829 0.15006097 -0.2715571 -0.05188974 -0.043641746 -0.109216616 -0.12077718 -0.15366402 0.11184542 0.08367796 0.016363936 -0.2022299 -0.015755957 0.067909025 -0.09112115 0.025568288 -0.0068762656 0.08066875 -0.103111595 -0.079332806 -0.16793866 -0.05213647 0.02203925 0.1339074 0.11306888 0.03893945 -0.09904575 -0.018545305 0.06827541 0.037566252 0.030813608 -0.021350166 0.040646363 0.094342425 0.08927218 0.1379192 0.18815213 -0.12408518 -0.05204609 0.008823405 -0.08658147 -0.14006491 0.008634471 0.09377876 -0.12800266 -0.10349248 0.08871731 -0.12590525 0.02141821 -0.11189182 0.07072118 -0.030753035 -0.1366233 0.07583648 0.07680298 0.04541553 0.09179625 0.08442349 0.11948515 0.0690941 0.059912983 0.07201869 0.0019488834 -0.012453391 0.038727384 -0.0299606 0.0045542032 -0.18928315 0.039944373 -0.04337832 0.15400778 -0.030389704 0.06261541 -0.079317145 0.020734744 0.169662 0.0801092 -0.07618684 0.018020798 0.0697158 0.0068871267 0.07056878 0.017515145 -0.05156737 -0.04726136 -0.19505411 0.048326448 0.048112076 0.09518014 -0.0043210937 0.0122597255 -0.049241826 -0.108574584 0.15408903 -0.032662373 0.19599012 -0.14083868 -0.15322727 0.045541815 0.08668595 0.026277253 0.06318443 -0.14312713 0.09768765 0.0062196925 -0.038722966 0.030882752 -0.014738546 -0.019120155 -0.09588375 0.0068336925 -0.20699693 -0.04233047 0.027890379 -0.048010204 -0.09621744 -0.12201627 -0.064586 0.24982545 -0.021948691 0.101723716 0.13152413 0.13285051 0.086262405 0.008522208 0.066135034 0.066861205 0.034263622 -0.0031503143 0.02065505 0.050914735 -0.12490717 -0.1311515 -0.0043987115 -0.14098774 -0.06911782 0.00712106 -0.09688842 -0.11507068 0.027747445 0.00021471707 0.051273335 -0.12543033 0.06493945 -0.17707531 -0.02356483 0.015326293 0.11531302 0.21510921 0.014509609 0.08779445 -0.1924834 0.25928083 -0.23166206 -0.13412242 0.006135442 0.013504362 -0.07735861 0.10323393 -0.14692889 0.014910046
7 0.01738808 0.028237125 0.01053143 -0.196362 -0.10797601 0.038301297 -0.015144198 0.003108399 0.09733404 -0.13681906 -0.1382414 -0.050913785 0.062287163 -0.07932617 -0.027771942 0.080067225 -0.0428068 -0.07010267 -0.15568833 0.016202465 0.06053958 -0.0313321 0.024352608 -0.046308443 -0.010614645 0.16865611 0.062140983 -0.10336416 -0.021977741 -0.015016676 0.10025652 0.036484566 -0.058530193 0.11227564 -0.06350722 -0.027834736 0.019564232 -0.16685712 0.13533203 -0.1460788 0.020275963 0.044922844 0.112361945 -0.0623364 0.05968476 -0.043590777 0.039133795 0.020185024 -0.038433097 0.05166618 -0.19891995 -0.0018049722 0.04796463 0.17288376 -0.030895807 -0.023559948 0.18337083 0.138845 -0.19889474 -0.01733185 -0.14441632 0.17921795 0.07982308 -0.09783461 -0.071134895 0.14261514 0.08209702 0.14321692 0.021085717 -0.14100078 -0.08272779 0.16333315 0.057700552 0.015881352 0.030947808 0.19299823 0.12976627 0.14422122 0.16244768 0.009121662 -0.036641046 0.10937902 -0.026834516 -0.18375464 -0.024063738 0.034665104 -0.08712196 -0.10583364 -0.105660506 0.0033151603 -0.08193224 -0.099780336 0.01917263 0.038181607 0.13094524 -0.075243294 -0.01571088 -0.02032949 0.16064186 -0.10500448 -0.08440839 0.1495766 0.03632531 0.009152527 -0.19706923 -0.030952279 -0.15304631 0.100472465 0.020081352 -0.08676514 -0.113927424 -0.09972984 0.024736272 -0.031647373 -0.16705504 -0.024509331 0.063690886 0.068216465 -0.05545932 -0.1060081 0.004076411 0.01686999 0.05020199 -0.03046396 -0.10535749 -0.12845829 -0.009293535 0.046915993 -0.14608544 0.12450471 -0.080917664 0.09848469 0.004470179 -0.039602675 0.0055202916 -0.00901132 -0.100754976 -0.039138462 -0.17141087 0.06737642 0.13022354 -0.2734366 -0.042181503 -0.03331502 -0.09687496 -0.112361506 -0.15988734 0.121138796 0.06157236 0.027781697 -0.18916045 -0.008805219 0.07902468 -0.114535496 0.030947652 -0.024182359 0.06769039 -0.09236165 -0.059981387 -0.16462561 -0.038234767 0.012922606 0.15443832 0.100086175 0.027676245 -0.0691319 -0.0048240493 0.083250694 0.036146857 0.0058672302 -0.023403602 0.038441848 0.08754535 0.100266635 0.13412921 0.18908899 -0.1234536 -0.045690086 0.01469084 -0.081542574 -0.12921935 -0.0010190082 0.11252515 -0.12565231 -0.11504172 0.052765008 -0.104012705 0.00095703243 -0.115960605 0.06487566 -0.029486947 -0.14732353 0.08378357 0.072064616 0.037633505 0.0689475 0.07834792 0.09794641 0.07510308 0.04101045 0.07036009 0.013394118 -0.013801977 0.04130215 -0.042375747 -0.017706228 -0.17894307 0.016404083 -0.04209198 0.15431003 -0.030567171 0.04460366 -0.072419226 0.021665843 0.15643981 0.051803686 -0.07367752 -0.0012415147 0.08498591 0.00056447927 0.09241162 0.016370935 -0.054471962 -0.03858446 -0.18837938 0.048801597 0.08091328 0.10715842 0.0065088817 0.011703944 -0.049512047 -0.1159321 0.13592815 -0.021558266 0.20704539 -0.13823003 -0.14666682 0.04103468 0.09141069 0.04878079 0.06667594 -0.14986767 0.08682705 0.018946186 -0.00036805004 0.033846248 -0.03203411 -0.02273132 -0.09495379 -0.0012703245 -0.20496358 -0.038870312 0.043010857 -0.03993492 -0.09363287 -0.12105181 -0.045906454 0.2245175 -0.01806299 0.082635865 0.122631244 0.14227985 0.10789988 0.0114755705 0.08610813 0.07515959 0.04872755 0.00935215 0.033285998 0.0477527 -0.11822502 -0.12108357 -0.0041958215 -0.15283903 -0.063175276 -0.018966528 -0.10590971 -0.12487702 0.043504898 -0.012871437 0.052596908 -0.10794286 0.07586411 -0.1789257 -0.05691833 0.017952193 0.09839844 0.21335672 -0.0041627595 0.06801652 -0.17078917 0.22177103 -0.22812097 -0.117619865 0.01797541 0.037519254 -0.10642785 0.11312208 -0.16031106 0.030557876
30 0.007997876 0.01147268 0.017783029 -0.18988477 -0.10945503 0.043659497 -0.008048045 0.008530412 0.10644402 -0.12666874 -0.13624208 -0.055629402 0.057090368 -0.08979334 -0.026947604 0.089901544 -0.048209067 -0.06898137 -0.15692195 0.01883487 0.050530445 -0.030967787 0.033394974 -0.04131184 -0.0031825157 0.18652675 0.06348427 -0.0892084 -0.014033798 -0.004527502 0.09387877 0.038996004 -0.057946727 0.11662815 -0.063617885 -0.011742477 0.009003094 -0.17424645 0.1277489 -0.14820954 0.023614582 0.049071494 0.117775075 -0.06126567 0.048886847 -0.042115103 0.03664702 0.025842875 -0.022870008 0.05677366 -0.19150728 0.013063725 0.048476752 0.17138827 -0.02445556 -0.019737164 0.18503363 0.14522938 -0.20719238 -0.026236534 -0.1450011 0.18124472 0.0818272 -0.094260775 -0.06639177 0.14408696 0.09313198 0.14931507 0.008938622 -0.14209664 -0.08261193 0.1646972 0.06254822 0.0213431 0.034512427 0.19579217 0.119815856 0.13240074 0.16504604 0.012255591 -0.03306898 0.10132213 -0.022695912 -0.18706894 -0.017962262 0.049769014 -0.0908974 -0.0977043 -0.10908638 0.011196573 -0.08973652 -0.105648585 0.021913864 0.04280703 0.121513985 -0.0799821 -0.01960069 -0.021521395 0.16920742 -0.09738876 -0.08604032 0.15414652 0.03286049 0.005263287 -0.195638 -0.024267925 -0.14683168 0.093690276 0.016999021 -0.07852015 -0.12410008 -0.09931425 0.030533439 -0.009473887 -0.16597386 -0.021167114 0.07889336 0.07441583 -0.05833148 -0.107232265 0.02229348 0.01142333 0.06544348 -0.032696124 -0.09259846 -0.12128425 -0.01386883 0.037076715 -0.14846908 0.12680677 -0.07421202 0.10357172 -0.00028116984 -0.036207825 0.009500534 -0.00729771 -0.096728615 -0.049796574 -0.1719684 0.06420737 0.141224 -0.2670632 -0.050231133 -0.038584 -0.10300125 -0.11592334 -0.15591808 0.11304169 0.075122856 0.021576341 -0.1943563 -0.010747719 0.07165923 -0.1001919 0.029261887 -0.012904054 0.07148266 -0.09795547 -0.07104851 -0.1651208 -0.047895942 0.019915449 0.14036089 0.10457569 0.032949094 -0.08777275 -0.011373759 0.072631575 0.034229614 0.020817557 -0.021446649 0.036414444 0.08746816 0.0912471 0.1337941 0.18917772 -0.11948617 -0.047588706 0.0123891 -0.08460172 -0.13261491 0.004842428 0.09906164 -0.12748003 -0.10647646 0.07287239 -0.11792336 0.015648315 -0.11399868 0.06839761 -0.030469704 -0.13898407 0.07680139 0.07315792 0.04157551 0.08223337 0.08400314 0.10996714 0.07076017 0.05165718 0.06802029 0.004511177 -0.014178276 0.03934739 -0.032503255 -0.0031975824 -0.18250653 0.029269582 -0.041099377 0.15437455 -0.029508263 0.057859603 -0.07769525 0.020214947 0.1640566 0.06692012 -0.07211941 0.011433464 0.07600551 0.004360597 0.07830092 0.018233314 -0.050512876 -0.042439535 -0.18924432 0.048172105 0.05854896 0.10114175 -0.0013650112 0.014721133 -0.049028564 -0.11198136 0.14779952 -0.029807577 0.19881475 -0.1399007 -0.14934038 0.04606869 0.08849402 0.036066305 0.06410383 -0.14392287 0.09219992 0.011406036 -0.023430796 0.03265955 -0.021773249 -0.018692927 -0.097164005 0.004668423 -0.20484279 -0.042120796 0.035103135 -0.044874497 -0.09443584 -0.11741482 -0.056097653 0.23780201 -0.021060443 0.09199967 0.12550426 0.13659166 0.0942589 0.0073117446 0.07261224 0.07089648 0.039709155 0.002137842 0.02455484 0.051526774 -0.11856912 -0.12520875 -0.0048059993 -0.14518686 -0.06802389 -0.001740386 -0.098115735 -0.11960041 0.031496327 -0.0044429894 0.052701335 -0.11620574 0.067691855 -0.1781051 -0.034260597 0.016907027 0.105961286 0.21207301 0.009271735 0.07755572 -0.1824966 0.24406351 -0.227671 -0.1268893 0.01049583 0.021668175 -0.08547409 0.10743483 -0.148894 0.019958653
24 0.010853022 0.008133229 0.014338979 -0.18412907 -0.110383496 0.048234683 -0.008298989 0.009958022 0.112113886 -0.12604408 -0.13900207 -0.05729101 0.05644091 -0.096575625 -0.022936685 0.09293223 -0.045840926 -0.071010575 -0.1611206 0.025468236 0.051438473 -0.033797514 0.03981787 -0.042697724 0.0013110049 0.19764265 0.0634231 -0.08116593 -0.009858025 -0.0047051255 0.090401515 0.038927723 -0.06202005 0.1170393 -0.058207333 -0.003170707 0.0066476674 -0.17226633 0.12657903 -0.14955936 0.026085176 0.05243133 0.11886671 -0.06705109 0.0420419 -0.04206592 0.037717916 0.023013182 -0.020383274 0.05587646 -0.19328764 0.020052716 0.048849054 0.17503573 -0.020714939 -0.016406745 0.1855283 0.14949508 -0.20426929 -0.030390276 -0.14300841 0.18414028 0.08465642 -0.086902335 -0.065593936 0.14932822 0.09901458 0.14717805 0.0044186627 -0.14578566 -0.08707013 0.16130981 0.061450493 0.0202999 0.037486516 0.19852293 0.116677076 0.13114297 0.17177095 0.0127727 -0.030611046 0.095522195 -0.017440388 -0.19180413 -0.011970874 0.05263464 -0.09904345 -0.09192079 -0.11259657 0.0117827365 -0.09182015 -0.10661765 0.026507096 0.04547092 0.121723704 -0.078656346 -0.01752839 -0.017129352 0.17249703 -0.10023643 -0.08521708 0.15547402 0.034679152 0.0028331596 -0.1989046 -0.025874814 -0.14996107 0.08850219 0.016018694 -0.07861619 -0.12605527 -0.096676156 0.03439502 -0.0021823386 -0.17163342 -0.01584878 0.08459873 0.0764793 -0.05397177 -0.112264454 0.026980242 0.009536434 0.07587201 -0.03421023 -0.088134676 -0.120529234 -0.016991008 0.035469685 -0.15049079 0.12430384 -0.069720834 0.112331875 0.0057973964 -0.032754023 0.009179522 -0.0009120146 -0.09173928 -0.050648376 -0.17202567 0.062282972 0.14350626 -0.27158073 -0.05156328 -0.03809502 -0.11050567 -0.11821104 -0.1535181 0.111518 0.07844206 0.017157217 -0.199923 -0.011036767 0.06966432 -0.092389874 0.028582184 -0.0039030104 0.08025923 -0.10146677 -0.07724 -0.16716018 -0.051655553 0.019953296 0.13594294 0.110655986 0.040044677 -0.09349487 -0.014854683 0.06913102 0.036662452 0.02656823 -0.020380028 0.039063133 0.09251592 0.089090325 0.13414696 0.19033869 -0.12406316 -0.05051794 0.008744549 -0.08447626 -0.13818558 0.00843368 0.09315261 -0.12980047 -0.10504814 0.083464324 -0.120394975 0.017094543 -0.109979205 0.070421994 -0.027016593 -0.1331414 0.076584905 0.076335095 0.045738082 0.09009282 0.08119768 0.11465685 0.07185532 0.05644043 0.072413586 0.005009529 -0.010459934 0.039724376 -0.034175072 -0.0007369397 -0.1852249 0.03719216 -0.040225625 0.15585464 -0.031426415 0.059172094 -0.07661944 0.019199692 0.16899483 0.07249275 -0.077314466 0.01549792 0.069295116 0.0043789917 0.069997035 0.013026612 -0.049506586 -0.045123722 -0.19035858 0.044402983 0.05236152 0.09707673 -0.0045493185 0.015871987 -0.04829477 -0.1066493 0.15325804 -0.03395727 0.1941039 -0.13739954 -0.1485656 0.04319351 0.08719743 0.026730817 0.059679992 -0.14136325 0.09273418 0.002975069 -0.037379842 0.030878002 -0.017277768 -0.018224282 -0.09761694 0.0063159587 -0.20496584 -0.042322394 0.03027703 -0.045349304 -0.093533754 -0.120201945 -0.060835287 0.24787916 -0.020847771 0.096201226 0.1298747 0.13434324 0.085757546 0.008624568 0.06676205 0.06892809 0.037182745 -0.0063618068 0.021151276 0.054157663 -0.12065349 -0.12856632 -0.004855649 -0.14137547 -0.070255406 0.002591826 -0.09364983 -0.11440676 0.03049217 -0.0023708215 0.05387233 -0.117878295 0.065109394 -0.17686722 -0.02740328 0.017089093 0.11338804 0.21129178 0.010830989 0.084086485 -0.18701391 0.25410968 -0.2269896 -0.1303695 0.008601821 0.020642538 -0.07742283 0.101503365 -0.14759453 0.013457743
25 0.011162238 0.009854864 0.015840748 -0.18547897 -0.112427264 0.047192134 -0.0101514915 0.0079286285 0.11245908 -0.12493273 -0.1389146 -0.060377676 0.057738323 -0.0994582 -0.02451897 0.09161323 -0.046615146 -0.07005986 -0.15783122 0.023730801 0.051093593 -0.034219336 0.039325625 -0.04059289 0.0010907329 0.19537261 0.0606985 -0.08199621 -0.008709299 -0.0028700442 0.090203315 0.038758837 -0.06182794 0.11771201 -0.059152834 -0.002817237 0.0051617455 -0.17201124 0.1282975 -0.15227623 0.024818655 0.054856766 0.11883172 -0.06644419 0.041314904 -0.04207125 0.037564237 0.022975916 -0.019681001 0.05579434 -0.19351265 0.019426925 0.049933083 0.17556511 -0.022151627 -0.016814489 0.18624884 0.15020876 -0.20667407 -0.027859965 -0.14458527 0.1839882 0.08132162 -0.08787301 -0.065830946 0.15099624 0.100778006 0.14901921 0.0051473454 -0.14334013 -0.08468672 0.16202573 0.060974736 0.019692186 0.035878498 0.19977686 0.116511256 0.1311015 0.17016187 0.011947717 -0.030216174 0.09780332 -0.018133357 -0.19159146 -0.012917884 0.052844107 -0.09658426 -0.09244022 -0.11470087 0.0104792565 -0.08837991 -0.10793813 0.025674889 0.044495642 0.11974415 -0.07824665 -0.017514383 -0.01740493 0.17038286 -0.09906299 -0.08676786 0.15348125 0.03438824 0.0025916325 -0.1987245 -0.024080006 -0.14879476 0.08753476 0.016021641 -0.07748968 -0.12774386 -0.09877017 0.036388297 -0.003952718 -0.17051421 -0.01854523 0.085937425 0.0741231 -0.055465974 -0.111574784 0.02868533 0.010849878 0.07552035 -0.033678282 -0.08821497 -0.1210991 -0.016154207 0.03726913 -0.15147185 0.12494733 -0.07134655 0.10998494 0.0033574235 -0.03312106 0.008390763 -0.0038435243 -0.0907743 -0.04942124 -0.17318244 0.06418849 0.14489204 -0.2711807 -0.04927782 -0.038092736 -0.109994955 -0.119144574 -0.15389746 0.11364584 0.07843456 0.018625462 -0.19911431 -0.013386282 0.06885806 -0.093169436 0.02745352 -0.0046676374 0.079038836 -0.102632515 -0.0738076 -0.1661902 -0.04984081 0.020264463 0.13730219 0.10893195 0.039395146 -0.09145296 -0.016608093 0.06826299 0.034043517 0.029204665 -0.020418707 0.03713139 0.091719344 0.09229253 0.13434166 0.18810283 -0.12532234 -0.050928917 0.008398186 -0.082169026 -0.13738357 0.008760524 0.09335117 -0.12815978 -0.10298189 0.08112005 -0.122119375 0.016319362 -0.113818906 0.0698806 -0.028544141 -0.13605209 0.07551048 0.07377931 0.044263016 0.09065565 0.083373874 0.1140743 0.07130653 0.05762559 0.07162026 0.00498295 -0.011053059 0.04096982 -0.033326734 0.00056164275 -0.18417005 0.0348067 -0.041660517 0.15454826 -0.033665072 0.059503544 -0.07773444 0.019523786 0.16940922 0.07279726 -0.07731676 0.014244144 0.068266526 0.0046156836 0.071966365 0.013638088 -0.050220035 -0.045715712 -0.19128343 0.044837136 0.051856663 0.095622145 -0.0043857465 0.015306088 -0.047699697 -0.108403884 0.15419562 -0.035334274 0.19291122 -0.13804162 -0.14573853 0.044334065 0.08564073 0.029226586 0.060531065 -0.14441301 0.09387809 0.004971562 -0.036555145 0.031532828 -0.018678049 -0.020274334 -0.09607087 0.006353531 -0.20317772 -0.04035172 0.02911513 -0.045814306 -0.09418511 -0.117087916 -0.05965488 0.24768595 -0.022396745 0.09808168 0.13028316 0.1316337 0.08812407 0.0070118164 0.06816073 0.0702897 0.036876142 -0.0071696993 0.021800563 0.05282205 -0.12026371 -0.12816785 -0.004899564 -0.14360331 -0.06728312 0.003764437 -0.095120884 -0.1143925 0.027391462 -0.0010969292 0.0540139 -0.117880575 0.06453489 -0.1763615 -0.025677577 0.01962373 0.113982774 0.20994301 0.013140442 0.08511736 -0.19014153 0.25206187 -0.22703461 -0.13123147 0.008819572 0.0190186 -0.07606353 0.10414029 -0.1478899 0.012729298
16 0.054574918 0.058182344 -0.0065746126 -0.20019062 -0.109806776 0.03723852 -0.031710386 -0.0034455685 0.07612617 -0.15053114 -0.1327027 -0.027636409 0.068234645 -0.069481626 -0.034325063 0.0607539 -0.03205948 -0.058192518 -0.1543074 0.017565073 0.09079968 -0.034720734 0.024736177 -0.058881555 -0.030120803 0.124259844 0.07204778 -0.13640404 -0.022091564 -0.0311135 0.108807206 0.025734494 -0.049043674 0.093646765 -0.065606564 -0.06588334 0.03375522 -0.14618321 0.16052023 -0.14323312 0.016869562 0.029441928 0.10778874 -0.0694259 0.073465206 -0.03420869 0.038577877 -0.0015215793 -0.077633396 0.049090356 -0.21007119 -0.023430921 0.04953443 0.17720446 -0.044652354 -0.03312764 0.17166933 0.12728634 -0.18333721 -0.012159835 -0.11872376 0.18403627 0.060912598 -0.10670195 -0.08851035 0.13930087 0.071320936 0.14048211 0.040996715 -0.15096392 -0.08386239 0.15832238 0.045192316 0.0070215915 0.027707148 0.17101392 0.14343049 0.16715387 0.15288953 0.017227193 -0.056142703 0.12146393 -0.0374429 -0.17322992 -0.040540103 -0.011004724 -0.07868794 -0.12691572 -0.116825536 -0.013635801 -0.07421339 -0.07743033 0.0047073015 0.005460573 0.14401525 -0.054639097 -0.009546565 -0.006028652 0.14681143 -0.10608566 -0.076581836 0.1342268 0.036027677 0.01663257 -0.19110899 -0.048035707 -0.17008397 0.10983297 0.020271825 -0.09192472 -0.077673055 -0.104411006 0.017310841 -0.071425356 -0.16552326 -0.03440045 0.036879916 0.05975104 -0.051544107 -0.09486528 -0.033343684 0.03658263 0.016597832 -0.023935154 -0.13194941 -0.1491707 0.003875779 0.064433284 -0.14045389 0.11343356 -0.09775504 0.08616939 0.0212671 -0.050424755 -0.013041049 -0.007886372 -0.11746785 -0.02658115 -0.14995989 0.0723573 0.11141082 -0.27599764 -0.033807136 -0.04271703 -0.08068524 -0.10977046 -0.16102782 0.15170117 0.038376924 0.03807638 -0.16104035 0.0007988389 0.10288667 -0.13591018 0.029881397 -0.04585998 0.0572319 -0.08805513 -0.03817717 -0.16835259 -0.021497363 -0.0026144332 0.18288206 0.09845888 0.024356298 -0.02302615 0.0006870082 0.10377193 0.045982707 -0.028762907 -0.029758686 0.045551814 0.07647432 0.11919784 0.13732027 0.2042252 -0.12815626 -0.04985181 0.013368437 -0.076695524 -0.14442268 -0.019433338 0.1352451 -0.13229778 -0.1258931 0.013125483 -0.08285593 -0.021834701 -0.11283872 0.06646605 -0.031394772 -0.15912351 0.094637804 0.073868476 0.032212615 0.045287885 0.066689156 0.07444819 0.09716929 0.009067731 0.07087248 0.027605712 -0.009324117 0.048548393 -0.045501437 -0.038436055 -0.17466773 0.00036515173 -0.057773855 0.16543952 -0.027359264 0.02329986 -0.06530445 0.034135506 0.1450519 0.015195391 -0.0807787 -0.026401764 0.090157755 -0.017491661 0.12118928 0.011195357 -0.06297229 -0.019907363 -0.17753804 0.038829695 0.108105615 0.12070141 0.028150525 -0.008735031 -0.051421925 -0.13931644 0.10535886 -0.018150086 0.20788284 -0.13588156 -0.13324289 0.03047089 0.09632445 0.07273519 0.064796776 -0.16053753 0.06600529 0.028076958 0.036392044 0.04902183 -0.05947671 -0.023715444 -0.109256975 0.004749521 -0.21615495 -0.024609271 0.058667965 -0.0072862403 -0.09573797 -0.12330411 -0.022213135 0.19837138 -0.0057801167 0.068118446 0.11270641 0.16782434 0.11911352 0.020395514 0.11075963 0.09111194 0.05928675 0.00090202456 0.050821807 0.044616938 -0.12652503 -0.11518275 0.00048513655 -0.16135857 -0.060641356 -0.06119868 -0.11474605 -0.124892145 0.059507463 -0.019964447 0.06543112 -0.104545 0.07980837 -0.18766676 -0.08127789 0.021609096 0.08364422 0.23307809 -0.033711772 0.055565093 -0.15748028 0.17377067 -0.2210796 -0.10447657 0.028895335 0.054683387 -0.14477733 0.12430468 -0.18537909 0.04273773
28 0.010709276 0.0140655255 0.016647076 -0.1898606 -0.10844131 0.044233207 -0.010863179 0.008308894 0.10934598 -0.12815398 -0.13996914 -0.055747777 0.0593257 -0.09296193 -0.025808765 0.091825165 -0.045811288 -0.0705776 -0.15992384 0.02305596 0.053376637 -0.031465873 0.034404594 -0.041201044 -0.0021497158 0.18776944 0.06202577 -0.08683835 -0.0127672115 -0.0070753214 0.09164573 0.038266156 -0.05803271 0.11702401 -0.06079798 -0.010759878 0.007842389 -0.17196317 0.12876135 -0.14933011 0.025219891 0.05056524 0.11693007 -0.061754722 0.047725696 -0.043465197 0.03973915 0.023722537 -0.022768954 0.057568844 -0.19633195 0.010680946 0.048635405 0.17296658 -0.024303386 -0.0192151 0.18623355 0.14521056 -0.20576951 -0.025711766 -0.1446998 0.18425766 0.08260753 -0.09140851 -0.0660443 0.14589342 0.09368683 0.1489813 0.008456146 -0.1426569 -0.08608531 0.16291156 0.060484923 0.020439457 0.0353726 0.19756596 0.1209792 0.13541539 0.16701244 0.0136721935 -0.034163535 0.103051245 -0.023447713 -0.19015782 -0.01635153 0.04905495 -0.09505882 -0.09710943 -0.110295184 0.0106557915 -0.08818119 -0.10596936 0.023323953 0.041446522 0.12146315 -0.07881434 -0.018192608 -0.019593397 0.17064524 -0.099970005 -0.086757354 0.15463696 0.03453412 0.004381594 -0.19630429 -0.024490863 -0.14836961 0.09213127 0.015065182 -0.08034262 -0.12588401 -0.098339625 0.03345823 -0.012421121 -0.16905451 -0.0203048 0.08052978 0.0734647 -0.055078242 -0.1100024 0.022523815 0.011647915 0.06702318 -0.031468295 -0.094165504 -0.122009374 -0.012108371 0.039616033 -0.14902961 0.12738827 -0.075815 0.107529275 0.0031989962 -0.03648626 0.008739433 -0.006356212 -0.09571036 -0.048176 -0.17220224 0.06484001 0.1426275 -0.27132222 -0.05043845 -0.038860057 -0.10338303 -0.11737096 -0.15522328 0.115849964 0.07416601 0.021823814 -0.19612159 -0.012162951 0.074995875 -0.09872025 0.027999014 -0.011820439 0.07576976 -0.09955619 -0.070090376 -0.16825742 -0.047765415 0.020081306 0.14287166 0.10781774 0.03631977 -0.08591993 -0.01183187 0.07309131 0.03355887 0.021903494 -0.022557775 0.039473187 0.09218186 0.09479765 0.13584107 0.18872575 -0.12355915 -0.04885453 0.011802303 -0.08259407 -0.13453886 0.004285362 0.10148841 -0.1280251 -0.107774064 0.074196376 -0.11797576 0.01432202 -0.11545619 0.06956034 -0.031647354 -0.1385247 0.079664044 0.07462777 0.039969783 0.082124226 0.08341073 0.10912435 0.07126547 0.052897785 0.07150763 0.008047677 -0.014879508 0.041397043 -0.034064014 -0.002620283 -0.18266952 0.030542126 -0.04335571 0.15383196 -0.030997815 0.056138657 -0.0789032 0.019743761 0.16675805 0.06709672 -0.076790765 0.010496266 0.0749822 0.003584719 0.08068884 0.01793588 -0.049794003 -0.04188514 -0.19247515 0.046616577 0.059517518 0.101245165 -0.0005912996 0.0130266305 -0.048056025 -0.110354125 0.149728 -0.031573772 0.19904181 -0.14131242 -0.14840834 0.045782365 0.08907884 0.034011494 0.06347922 -0.14692253 0.092927635 0.0098415455 -0.02485458 0.032996446 -0.021561733 -0.018225493 -0.09862415 0.0038019673 -0.20556845 -0.041675575 0.034292836 -0.043155413 -0.095690444 -0.11929407 -0.054977592 0.23998988 -0.02103022 0.093182966 0.12647891 0.13807091 0.0923796 0.008474212 0.073616795 0.07236455 0.041179314 0.000111379166 0.026688144 0.051163618 -0.1218508 -0.1252814 -0.0044592367 -0.1467119 -0.0676947 -0.0048279413 -0.09853548 -0.11852151 0.03300606 -0.004854738 0.052893665 -0.11696158 0.06979908 -0.18003465 -0.036341973 0.01940558 0.10924694 0.21396278 0.006821618 0.07952947 -0.18497145 0.24621749 -0.22860251 -0.1284845 0.010314199 0.023557004 -0.08760987 0.10555207 -0.15043348 0.02020394
19 0.017169878 0.024487099 0.01059212 -0.19215614 -0.10769264 0.039613377 -0.014201086 0.0035331086 0.101037435 -0.13425454 -0.13882048 -0.05047986 0.0630358 -0.08174753 -0.028980639 0.0850488 -0.042838167 -0.071794644 -0.15532367 0.017733576 0.062062092 -0.030357335 0.027689705 -0.04423526 -0.008441135 0.1698527 0.06500759 -0.10186707 -0.019865625 -0.011771629 0.09808882 0.036762554 -0.058547843 0.11085009 -0.06243486 -0.025991049 0.016954118 -0.16706821 0.13460293 -0.14565164 0.02109686 0.043220945 0.11237496 -0.061025456 0.054676328 -0.043402664 0.03726338 0.020640617 -0.034609694 0.054025833 -0.19827268 0.0023470856 0.046690103 0.17075439 -0.02941325 -0.021631949 0.18099867 0.14164433 -0.2003039 -0.020609377 -0.14383063 0.17922008 0.07641146 -0.09586146 -0.07142352 0.14118151 0.08392374 0.14482243 0.01742488 -0.14331543 -0.081991315 0.16459379 0.056281533 0.017806042 0.031708628 0.1917282 0.1301141 0.1438703 0.16324502 0.012037036 -0.038016323 0.109568425 -0.02737787 -0.18230878 -0.02417823 0.038842626 -0.08670014 -0.10596537 -0.10925266 0.00379214 -0.08258399 -0.09832495 0.016931118 0.038684648 0.1269094 -0.073962234 -0.013950086 -0.018625543 0.1624986 -0.1033542 -0.08375041 0.14811808 0.03253752 0.006931585 -0.19616166 -0.02802594 -0.15079232 0.10080803 0.019700417 -0.08317241 -0.114650674 -0.09835468 0.025723131 -0.028736409 -0.1663824 -0.024032805 0.06684824 0.070366904 -0.055392206 -0.10489467 0.0057516475 0.016111609 0.055430666 -0.028744318 -0.1045821 -0.12640283 -0.009600264 0.042741276 -0.14496411 0.12238798 -0.081115976 0.099025995 0.0047282763 -0.03891907 0.005500722 -0.008160114 -0.09955848 -0.042182583 -0.17100605 0.066266276 0.13252166 -0.2712361 -0.045886 -0.035995796 -0.09689614 -0.11459536 -0.15558575 0.12176291 0.06418994 0.025569176 -0.18904841 -0.008190058 0.07965004 -0.11092307 0.029557489 -0.021967761 0.06845692 -0.091906324 -0.06282606 -0.16471392 -0.04043514 0.01298045 0.15140298 0.10280485 0.029532952 -0.07015605 -0.0074346205 0.08290792 0.03623174 0.009364834 -0.0241341 0.039036695 0.08842152 0.09883173 0.13244526 0.1882457 -0.123409085 -0.04649812 0.012407014 -0.08363939 -0.1331268 0.001542703 0.10759131 -0.12793462 -0.11380653 0.056410328 -0.10572982 0.0035086202 -0.11627673 0.066296786 -0.029159138 -0.14365816 0.08192783 0.071105264 0.03823273 0.07335835 0.081266254 0.09847138 0.07516625 0.040417176 0.06907473 0.010349729 -0.011953244 0.037980806 -0.038983118 -0.01255512 -0.17965376 0.018575083 -0.04312055 0.15366986 -0.02822969 0.047561206 -0.0744233 0.022162298 0.15758316 0.053876977 -0.07598501 0.0012862056 0.0818161 0.0013542166 0.08959096 0.015784439 -0.053552575 -0.039745998 -0.18903142 0.047850035 0.07568454 0.106242545 0.00458578 0.01311999 -0.048556924 -0.11764344 0.13675125 -0.022250267 0.20412551 -0.13853694 -0.14500906 0.04281034 0.09016892 0.047403153 0.06663256 -0.14895906 0.087549314 0.01911196 -0.0051145945 0.03582688 -0.031347465 -0.020304449 -0.09790104 0.0011849919 -0.20423698 -0.037691172 0.041620016 -0.039433576 -0.090683095 -0.12178417 -0.047321636 0.22481406 -0.017756624 0.084387966 0.12294523 0.14086741 0.10422567 0.0113138035 0.08020031 0.073316894 0.045773838 0.004721897 0.031143174 0.045775626 -0.119955614 -0.12145878 -0.004206614 -0.15080501 -0.06543439 -0.015635777 -0.10376823 -0.12078886 0.04015145 -0.011338378 0.05214775 -0.111620314 0.071052656 -0.17999008 -0.052140664 0.019859785 0.09866625 0.21344045 -0.00037168284 0.07039489 -0.1750864 0.2227857 -0.22925611 -0.12020706 0.015010821 0.033209175 -0.10309835 0.11073628 -0.16051245 0.031180473
22 0.008594079 0.010683371 0.017648604 -0.18818948 -0.10889247 0.04298587 -0.00810912 0.008066289 0.10961603 -0.12780929 -0.13959917 -0.05644992 0.058076646 -0.09558617 -0.025001986 0.093067795 -0.04637007 -0.068957545 -0.15848702 0.022005226 0.051231697 -0.03266481 0.03666003 -0.0401849 -0.0005198908 0.18939084 0.06385728 -0.08555909 -0.012025922 -0.0035189136 0.09195729 0.03806472 -0.057203837 0.116538584 -0.060973816 -0.008114893 0.007018565 -0.17296955 0.12803788 -0.14955209 0.024310015 0.04960082 0.116136886 -0.0619068 0.046563953 -0.043972712 0.03787912 0.024604792 -0.022722416 0.05764315 -0.1927416 0.013427766 0.04889302 0.17494453 -0.024687668 -0.02021902 0.18651138 0.14678684 -0.2069724 -0.02647347 -0.14430805 0.18381792 0.08266998 -0.09113218 -0.06692396 0.1462111 0.09555314 0.15124552 0.008339105 -0.14281207 -0.086557664 0.16377516 0.061850596 0.020617478 0.036106274 0.19513543 0.11753306 0.13412844 0.16875231 0.012587879 -0.03376877 0.09952345 -0.021377789 -0.18931097 -0.017852418 0.050829876 -0.095153466 -0.096268244 -0.11071844 0.011094601 -0.08862839 -0.10427657 0.024853619 0.044255342 0.12025283 -0.078430586 -0.017322894 -0.021158382 0.17028606 -0.097748674 -0.08612551 0.15397164 0.03288636 0.003789464 -0.1964296 -0.024773907 -0.14654143 0.09233092 0.014859723 -0.07907588 -0.12632897 -0.09782581 0.033677578 -0.0073166336 -0.1688235 -0.018475778 0.08210265 0.07391311 -0.056844946 -0.109105386 0.02413507 0.009609914 0.069360875 -0.03301244 -0.09132514 -0.12306457 -0.012352358 0.035093714 -0.14847292 0.12721853 -0.07651972 0.106938496 0.002316831 -0.036152076 0.008076753 -0.00450843 -0.09453926 -0.04758858 -0.17306253 0.063638255 0.14515609 -0.26816738 -0.04986992 -0.03752467 -0.10467332 -0.117107145 -0.15465473 0.11264861 0.076601565 0.020299632 -0.19736698 -0.012186438 0.07308945 -0.09672627 0.026006881 -0.011472021 0.07438675 -0.09931937 -0.07332625 -0.1665772 -0.04730037 0.020993873 0.14177647 0.10558514 0.03635346 -0.088966876 -0.014385548 0.07210821 0.03612897 0.022874486 -0.023699367 0.039071236 0.088702165 0.09305913 0.13435198 0.18911432 -0.12236025 -0.048155278 0.010731451 -0.08356488 -0.13541785 0.0053748027 0.09798275 -0.1275216 -0.1073877 0.07687053 -0.11966905 0.014170895 -0.114172935 0.07093825 -0.029487172 -0.13890474 0.0790257 0.073266186 0.04031276 0.08472809 0.083960176 0.11201408 0.069640465 0.053082816 0.07146776 0.0062093656 -0.01513927 0.040799655 -0.032913197 -0.0024455572 -0.18486595 0.0305743 -0.044252392 0.1535948 -0.031658422 0.059695765 -0.0767788 0.022027368 0.16453655 0.070100375 -0.07318604 0.01029664 0.071730725 0.005007567 0.076598875 0.01574328 -0.052001 -0.04517292 -0.19077057 0.04670141 0.056211244 0.100758314 -0.0035148722 0.014354875 -0.048656967 -0.11125841 0.14925049 -0.031600274 0.19674498 -0.13934134 -0.14897199 0.046275258 0.08822453 0.034953326 0.061068263 -0.14360574 0.09475707 0.009768771 -0.026354754 0.030303298 -0.02240101 -0.019868825 -0.09521326 0.0033327264 -0.20436808 -0.04148443 0.03349023 -0.04278675 -0.094028346 -0.11926981 -0.055694908 0.24174932 -0.02122517 0.09516489 0.12749714 0.13735226 0.09004861 0.0084672095 0.071685314 0.07213533 0.038743496 -0.0013709847 0.024934402 0.050009202 -0.12276339 -0.12537396 -0.004160741 -0.14341654 -0.06831041 -0.00088428974 -0.09661803 -0.1192111 0.030924082 -0.0046839146 0.05330778 -0.1202625 0.0666323 -0.17900796 -0.03281678 0.01714084 0.10919077 0.21233273 0.0073511642 0.08131588 -0.18561332 0.24682175 -0.23076834 -0.12894309 0.010138206 0.020226516 -0.086626194 0.10432317 -0.14867035 0.017832018
26 0.00784275 0.006780221 0.015339706 -0.1900084 -0.10988707 0.045724407 -0.00760591 0.010530392 0.111761495 -0.12619987 -0.14087622 -0.06142149 0.057709545 -0.099557474 -0.024876226 0.094919786 -0.047935124 -0.07105707 -0.15909387 0.022094939 0.04814288 -0.036092043 0.037972778 -0.03987553 0.00096045405 0.19427843 0.06323962 -0.08133433 -0.008679585 -0.0018997748 0.09355779 0.037486907 -0.05987342 0.118056625 -0.060576323 -0.0036770771 0.0038011954 -0.17418605 0.12498184 -0.14835091 0.025694354 0.050969128 0.11819944 -0.062175523 0.043167356 -0.043491915 0.03823238 0.023423132 -0.01709675 0.057279453 -0.19378787 0.015939422 0.048237108 0.17290224 -0.022907844 -0.01750362 0.18449043 0.15271728 -0.20653832 -0.027284252 -0.14569221 0.18333262 0.08169973 -0.09061127 -0.06411952 0.14961341 0.09871714 0.15270118 0.0059773717 -0.14456834 -0.08540165 0.16629018 0.0632797 0.023135109 0.032944784 0.19649878 0.11549016 0.131141 0.17142877 0.013066266 -0.032168724 0.09761944 -0.017343348 -0.19176832 -0.014636739 0.053158153 -0.096626006 -0.09719749 -0.112330824 0.010681874 -0.09171002 -0.1048807 0.024758276 0.046176814 0.120215595 -0.078553244 -0.018204896 -0.018695263 0.17308223 -0.09640204 -0.08821982 0.15390332 0.034798708 0.0019168576 -0.19484709 -0.022440016 -0.15029705 0.0893555 0.013629742 -0.07756876 -0.12722357 -0.09804125 0.036708057 -0.0038925346 -0.16954572 -0.01888827 0.08646831 0.07454203 -0.057266276 -0.11091779 0.026773185 0.010791164 0.07452738 -0.033064354 -0.09240105 -0.11960424 -0.014537004 0.03367809 -0.14912999 0.12570807 -0.07461263 0.10767735 0.00020156038 -0.035140514 0.0077445535 -0.002738092 -0.09463348 -0.05040509 -0.17060128 0.06424025 0.14754148 -0.26868907 -0.048358485 -0.04223929 -0.10862335 -0.117104 -0.15516587 0.11217797 0.08130064 0.016761994 -0.19903961 -0.015161171 0.06957728 -0.09684531 0.028955378 -0.007994232 0.07881169 -0.09901689 -0.07613897 -0.16630699 -0.05217192 0.020323535 0.13715132 0.11046439 0.037398767 -0.09122787 -0.01689485 0.07176052 0.034817483 0.027631178 -0.022813788 0.038936924 0.09268936 0.09047321 0.1370357 0.18792622 -0.12097391 -0.049959034 0.010517572 -0.08513956 -0.13603331 0.008715315 0.096949875 -0.12841491 -0.10467904 0.08377124 -0.12384755 0.018711971 -0.11031162 0.07232021 -0.029219117 -0.1356156 0.07739439 0.076904796 0.042949945 0.0856562 0.08262342 0.11520385 0.06868124 0.0546812 0.07116972 0.0024658379 -0.013143896 0.03761756 -0.033224385 0.0016551756 -0.18654713 0.0363885 -0.042753972 0.15277785 -0.03153083 0.058003582 -0.07814236 0.02003224 0.16684401 0.074900866 -0.074248664 0.014276628 0.07058949 0.00421559 0.072266676 0.016323866 -0.051270474 -0.042884395 -0.19187179 0.047790337 0.054274373 0.09931361 -0.0041274847 0.012416264 -0.05128064 -0.109905936 0.15344864 -0.033626925 0.19579706 -0.13951097 -0.15008706 0.04608635 0.09050606 0.029347211 0.062293734 -0.14512444 0.09317826 0.007156516 -0.033932306 0.03226096 -0.019461453 -0.020377118 -0.09690065 0.006309252 -0.20485309 -0.04087016 0.029498046 -0.04391126 -0.09331904 -0.119825095 -0.06211634 0.24312207 -0.01934669 0.09847404 0.13026379 0.13571319 0.08901295 0.0085424455 0.06897662 0.06714485 0.037313227 -0.0034838743 0.023550678 0.05124181 -0.123434804 -0.12972994 -0.00412029 -0.14466733 -0.06648649 0.00031033522 -0.09660946 -0.11688619 0.03127376 -0.0011303421 0.051761057 -0.12289262 0.064388126 -0.17784916 -0.025347287 0.015889822 0.11062166 0.21179773 0.008866534 0.08502222 -0.18789776 0.2533398 -0.23059243 -0.13146171 0.0070706494 0.016083615 -0.07910959 0.10352111 -0.14653455 0.01743726
15 0.0068154614 0.007505166 0.015680455 -0.18831795 -0.10927618 0.042630956 -0.007356718 0.008484916 0.11046625 -0.12795494 -0.13906763 -0.058287762 0.059389718 -0.0964224 -0.026040398 0.094511636 -0.047534276 -0.068791196 -0.15823951 0.022359531 0.05120903 -0.034041446 0.037639335 -0.040048502 -0.0017276697 0.19085015 0.06252466 -0.0846935 -0.01033737 -0.0053597298 0.092435226 0.037551902 -0.05879032 0.11730573 -0.061704 -0.006715431 0.0062251408 -0.17487776 0.12823409 -0.15001388 0.02456925 0.05210395 0.11634472 -0.062122867 0.044000898 -0.043929506 0.036828257 0.026674291 -0.020126114 0.056438986 -0.19234657 0.014484031 0.046893574 0.17471921 -0.02196183 -0.019774225 0.18673512 0.14848782 -0.20869581 -0.027199753 -0.14684288 0.18139236 0.08390364 -0.092674725 -0.06561632 0.14728418 0.09525889 0.14920668 0.0067219003 -0.14414424 -0.085128 0.16326416 0.06268524 0.022580002 0.03576708 0.19737421 0.116679356 0.1324933 0.16833648 0.01128495 -0.031996477 0.09954357 -0.020745618 -0.19212145 -0.015301935 0.052674685 -0.09334295 -0.09438517 -0.11112406 0.010460852 -0.09157444 -0.10590511 0.02330414 0.042727 0.11865714 -0.08065424 -0.017554166 -0.018530145 0.17302069 -0.09608445 -0.0876496 0.15292688 0.03248405 0.0042514866 -0.19461173 -0.023654304 -0.14609589 0.09207967 0.015940724 -0.078055374 -0.1275566 -0.0975591 0.033193212 -0.0060067223 -0.17042728 -0.017848566 0.08402921 0.0737559 -0.05619169 -0.10872717 0.026835315 0.009304107 0.07054166 -0.031639487 -0.09078705 -0.12100087 -0.012664917 0.034270566 -0.14870137 0.12757894 -0.07289262 0.106383085 0.0013492119 -0.035221394 0.009861391 -0.005526861 -0.09408735 -0.04899063 -0.17310676 0.06567869 0.14660093 -0.26748246 -0.05057598 -0.03828889 -0.10767398 -0.11762476 -0.15364277 0.11268048 0.07672248 0.019874921 -0.19731088 -0.013887768 0.07124267 -0.09572754 0.026925713 -0.0110169295 0.07497614 -0.09773723 -0.07259892 -0.16561829 -0.04860984 0.020567175 0.13893971 0.10856308 0.03710255 -0.091626756 -0.013647697 0.07068147 0.035797883 0.026179802 -0.023002854 0.03927509 0.09100606 0.09081612 0.13498013 0.186973 -0.12202958 -0.04846516 0.011004418 -0.08328961 -0.13591324 0.007457092 0.096146405 -0.12658952 -0.1066858 0.07890587 -0.12004982 0.01726225 -0.11185622 0.06977719 -0.02857819 -0.1354362 0.078159705 0.07328051 0.041122444 0.08530086 0.084259436 0.11244634 0.068537176 0.05358157 0.06947691 0.003413969 -0.01457365 0.040758852 -0.030939734 -0.0013080605 -0.18642451 0.033005517 -0.04391538 0.1523143 -0.029803585 0.060394548 -0.07643498 0.020236023 0.16426031 0.072106495 -0.07557501 0.0127371345 0.07205193 0.004178308 0.07486484 0.01736339 -0.050930515 -0.04521189 -0.19105363 0.046498094 0.0545061 0.09925707 -0.0048716236 0.014367758 -0.04899789 -0.111582674 0.15129453 -0.031010227 0.19692247 -0.13970697 -0.14945848 0.045521714 0.08962687 0.0306357 0.06432543 -0.14303318 0.094292745 0.008352698 -0.029169384 0.03243604 -0.020051394 -0.018495394 -0.09567586 0.0047256667 -0.20612158 -0.039993543 0.032888345 -0.04510211 -0.09573336 -0.12147447 -0.059077326 0.24122524 -0.020189814 0.09611005 0.12736088 0.13498987 0.09038304 0.00895654 0.06938606 0.06990119 0.036507197 -0.0023435939 0.024366248 0.049657233 -0.122028716 -0.12780046 -0.005262502 -0.14330001 -0.067872256 -0.00029758713 -0.09619443 -0.1178239 0.031567484 -0.0039148936 0.052987378 -0.11837177 0.06802442 -0.17888421 -0.030759325 0.018042764 0.111553326 0.21235748 0.009751653 0.08091747 -0.1869259 0.24815607 -0.22851339 -0.13102297 0.008969894 0.021345498 -0.082708694 0.10521103 -0.14874233 0.017852942
12 0.021425063 0.029286666 0.011872933 -0.19470824 -0.10750807 0.037046615 -0.018643262 0.0016025451 0.097666346 -0.1365507 -0.13688348 -0.04627602 0.062016487 -0.079354174 -0.028549556 0.07919032 -0.044084784 -0.07124763 -0.15422222 0.018173572 0.064316034 -0.030821377 0.02525441 -0.047161955 -0.011186687 0.16615708 0.064928375 -0.10591818 -0.01898297 -0.012824675 0.098995365 0.032884505 -0.056557942 0.10842937 -0.06443365 -0.029685758 0.01906168 -0.1624527 0.13869524 -0.14699434 0.020156546 0.04287619 0.11210229 -0.06115615 0.056870822 -0.040774044 0.038049303 0.020033194 -0.040946174 0.051481135 -0.19635691 -0.0019954832 0.05058025 0.17373176 -0.033372283 -0.023079565 0.18201365 0.13859594 -0.199269 -0.019811906 -0.14260162 0.17933321 0.07756505 -0.09651848 -0.07453472 0.14143543 0.08079437 0.14480767 0.021362202 -0.14274587 -0.08134688 0.164449 0.054711793 0.018680472 0.029354215 0.18823528 0.12955615 0.14375645 0.16006625 0.011215638 -0.038224746 0.11195078 -0.028943922 -0.18447624 -0.024445325 0.03351813 -0.08552919 -0.10799035 -0.10546711 0.0038789948 -0.0794643 -0.09607173 0.016503219 0.03514939 0.13093199 -0.07365284 -0.012749707 -0.016924156 0.16115466 -0.10310279 -0.08352009 0.14863797 0.034522794 0.009299212 -0.19448557 -0.030780455 -0.1527464 0.10228632 0.019402428 -0.08482824 -0.112253785 -0.098211 0.026751943 -0.03322144 -0.16669092 -0.026189467 0.06388742 0.06992064 -0.052667744 -0.101975314 -0.00013908675 0.018391391 0.048515227 -0.029047176 -0.10838046 -0.12901492 -0.008902381 0.04720578 -0.14673829 0.122706056 -0.08307518 0.09803484 0.004954502 -0.038880482 0.0034894338 -0.0072532175 -0.10130109 -0.037396766 -0.1679784 0.068751566 0.12788549 -0.27213994 -0.04253039 -0.032504026 -0.09532042 -0.11358589 -0.1594958 0.12436355 0.06035151 0.028761309 -0.1865737 -0.006010129 0.0814508 -0.11194204 0.031261656 -0.02425326 0.067748606 -0.092351876 -0.060306024 -0.16358384 -0.038779162 0.009294653 0.15586391 0.09927348 0.026260957 -0.0667827 -0.005638358 0.083365716 0.037379995 0.0049692485 -0.024704266 0.037158996 0.0849428 0.09991052 0.13115616 0.18927163 -0.12413118 -0.045896415 0.0120004965 -0.080512784 -0.13320225 -0.0038301055 0.113265716 -0.12585412 -0.11472309 0.049515802 -0.101451434 0.0014544823 -0.116692536 0.06392752 -0.029538997 -0.14484948 0.08364577 0.073154606 0.03925516 0.06707895 0.07672016 0.09537097 0.07581003 0.0373836 0.07009527 0.011715501 -0.011397233 0.04047773 -0.0405648 -0.01812937 -0.17863132 0.014088886 -0.043167163 0.15440193 -0.027115671 0.045138825 -0.073298134 0.02192056 0.15750365 0.049271606 -0.073529944 -0.0031102214 0.082330726 -0.0001540214 0.09136605 0.015832828 -0.05482258 -0.039312396 -0.18673767 0.047723923 0.08216102 0.10614347 0.006723427 0.01140035 -0.048055273 -0.11623074 0.1352161 -0.023832094 0.20480973 -0.13759576 -0.14554527 0.040543433 0.09149406 0.051039204 0.06678688 -0.15015192 0.086553246 0.019342793 0.0004880061 0.03569877 -0.03520957 -0.023383733 -0.095389426 0.00015223138 -0.20354506 -0.035203043 0.043818537 -0.03860489 -0.09275405 -0.120863356 -0.042441662 0.22299515 -0.013878198 0.08074748 0.11950587 0.143778 0.10526896 0.012827914 0.08643407 0.075849615 0.049554642 0.008410165 0.03402294 0.046029545 -0.12010582 -0.12058411 -0.0022645316 -0.15112855 -0.063686796 -0.023676911 -0.10489509 -0.12396532 0.04462602 -0.0124230655 0.055987075 -0.10921463 0.07198858 -0.1767393 -0.05591418 0.017661512 0.09518058 0.21628901 -0.0054445234 0.07004468 -0.17071128 0.21865006 -0.22880916 -0.11669228 0.019132301 0.035426065 -0.109054424 0.11343004 -0.16134411 0.031210396
